<?xml version="1.0"?>
<MethodSetup Method="BDT::BDTG">
  <GeneralInfo>
    <Info name="TMVA Release" value="4.2.1 [262657]"/>
    <Info name="ROOT Release" value="6.12/07 [396295]"/>
    <Info name="Creator" value="glusheno"/>
    <Info name="Date" value="Fri Jan 25 07:56:59 2019"/>
    <Info name="Host" value="Linux cmsbuild84.cern.ch 2.6.32-696.30.1.el6.x86_64 #1 SMP Tue May 22 06:09:36 CEST 2018 x86_64 x86_64 x86_64 GNU/Linux"/>
    <Info name="Dir" value="/afs/desy.de/user/g/glusheno/RWTH/MVAtraining/CMSSW_10_4_0_pre3/src"/>
    <Info name="Training events" value="11425908"/>
    <Info name="TrainingTime" value="2.20058780e+04"/>
    <Info name="AnalysisType" value="Classification"/>
  </GeneralInfo>
  <Options>
    <Option name="V" modified="Yes">False</Option>
    <Option name="VerbosityLevel" modified="No">Default</Option>
    <Option name="VarTransform" modified="No">None</Option>
    <Option name="H" modified="Yes">False</Option>
    <Option name="CreateMVAPdfs" modified="No">False</Option>
    <Option name="IgnoreNegWeightsInTraining" modified="No">False</Option>
    <Option name="NTrees" modified="Yes">1000</Option>
    <Option name="MaxDepth" modified="Yes">5</Option>
    <Option name="MinNodeSize" modified="No">5%</Option>
    <Option name="nCuts" modified="Yes">500</Option>
    <Option name="BoostType" modified="Yes">Grad</Option>
    <Option name="AdaBoostR2Loss" modified="No">quadratic</Option>
    <Option name="UseBaggedBoost" modified="Yes">True</Option>
    <Option name="Shrinkage" modified="Yes">2.000000e-01</Option>
    <Option name="AdaBoostBeta" modified="No">5.000000e-01</Option>
    <Option name="UseRandomisedTrees" modified="No">False</Option>
    <Option name="UseNvars" modified="No">5</Option>
    <Option name="UsePoissonNvars" modified="No">True</Option>
    <Option name="BaggedSampleFraction" modified="No">5.000000e-01</Option>
    <Option name="UseYesNoLeaf" modified="No">True</Option>
    <Option name="NegWeightTreatment" modified="No">pray</Option>
    <Option name="Css" modified="No">1.000000e+00</Option>
    <Option name="Cts_sb" modified="No">1.000000e+00</Option>
    <Option name="Ctb_ss" modified="No">1.000000e+00</Option>
    <Option name="Cbb" modified="No">1.000000e+00</Option>
    <Option name="NodePurityLimit" modified="No">5.000000e-01</Option>
    <Option name="SeparationType" modified="Yes">giniindex</Option>
    <Option name="RegressionLossFunctionBDTG" modified="No">huber</Option>
    <Option name="HuberQuantile" modified="No">7.000000e-01</Option>
    <Option name="DoBoostMonitor" modified="No">False</Option>
    <Option name="UseFisherCuts" modified="No">False</Option>
    <Option name="MinLinCorrForFisher" modified="No">8.000000e-01</Option>
    <Option name="UseExclusiveVars" modified="No">False</Option>
    <Option name="DoPreselection" modified="No">False</Option>
    <Option name="SigToBkgFraction" modified="No">1.000000e+00</Option>
    <Option name="PruneMethod" modified="Yes">nopruning</Option>
    <Option name="PruneStrength" modified="No">0.000000e+00</Option>
    <Option name="PruningValFraction" modified="No">5.000000e-01</Option>
    <Option name="SkipNormalization" modified="No">False</Option>
    <Option name="nEventsMin" modified="No">0</Option>
    <Option name="UseBaggedGrad" modified="No">False</Option>
    <Option name="GradBaggingFraction" modified="Yes">5.000000e-01</Option>
    <Option name="UseNTrainEvents" modified="No">0</Option>
    <Option name="NNodesMax" modified="No">0</Option>
  </Options>
  <Variables NVar="23">
    <Variable VarIndex="0" Expression="TMath::Log(TMath::Max(1.,recTauPt))" Label="TMath::Log(TMath::Max(1.,recTauPt))" Title="TMath::Log(TMath::Max(1.,recTauPt))" Unit="" Internal="TMath_Log_TMath_Max_1.,recTauPt__" Type="F" Min="2.89037180e+00" Max="8.54256058e+00"/>
    <Variable VarIndex="1" Expression="TMath::Abs(recTauEta)" Label="TMath::Abs(recTauEta)" Title="TMath::Abs(recTauEta)" Unit="" Internal="TMath_Abs_recTauEta_" Type="F" Min="6.96011142e-08" Max="2.67318583e+00"/>
    <Variable VarIndex="2" Expression="TMath::Log(TMath::Max(1.e-2,chargedIsoPtSum))" Label="TMath::Log(TMath::Max(1.e-2,chargedIsoPtSum))" Title="TMath::Log(TMath::Max(1.e-2,chargedIsoPtSum))" Unit="" Internal="TMath_Log_TMath_Max_1.e_M_2,chargedIsoPtSum__" Type="F" Min="-4.60517025e+00" Max="2.30258489e+00"/>
    <Variable VarIndex="3" Expression="TMath::Log(TMath::Max(1.e-2,neutralIsoPtSum_ptGt1.0))" Label="TMath::Log(TMath::Max(1.e-2,neutralIsoPtSum_ptGt1.0))" Title="TMath::Log(TMath::Max(1.e-2,neutralIsoPtSum_ptGt1.0))" Unit="" Internal="TMath_Log_TMath_Max_1.e_M_2,neutralIsoPtSum_ptGt1.0__" Type="F" Min="-4.60517025e+00" Max="8.04597378e+00"/>
    <Variable VarIndex="4" Expression="TMath::Log(TMath::Max(1.e-2,puCorrPtSum))" Label="TMath::Log(TMath::Max(1.e-2,puCorrPtSum))" Title="TMath::Log(TMath::Max(1.e-2,puCorrPtSum))" Unit="" Internal="TMath_Log_TMath_Max_1.e_M_2,puCorrPtSum__" Type="F" Min="-4.60517025e+00" Max="8.03087616e+00"/>
    <Variable VarIndex="5" Expression="TMath::Log(TMath::Max(1.e-2,photonPtSumOutsideSignalCone_ptGt1.0))" Label="TMath::Log(TMath::Max(1.e-2,photonPtSumOutsideSignalCone_ptGt1.0))" Title="TMath::Log(TMath::Max(1.e-2,photonPtSumOutsideSignalCone_ptGt1.0))" Unit="" Internal="TMath_Log_TMath_Max_1.e_M_2,photonPtSumOutsideSignalCone_ptGt1.0__" Type="F" Min="-4.60517025e+00" Max="7.15617657e+00"/>
    <Variable VarIndex="6" Expression="recTauDecayMode" Label="recTauDecayMode" Title="recTauDecayMode" Unit="" Internal="recTauDecayMode" Type="I" Min="0.00000000e+00" Max="1.00000000e+01"/>
    <Variable VarIndex="7" Expression="TMath::Min(30.,recTauNphoton_ptGt1.0)" Label="TMath::Min(30.,recTauNphoton_ptGt1.0)" Title="TMath::Min(30.,recTauNphoton_ptGt1.0)" Unit="" Internal="TMath_Min_30.,recTauNphoton_ptGt1.0_" Type="F" Min="0.00000000e+00" Max="3.00000000e+01"/>
    <Variable VarIndex="8" Expression="TMath::Min(0.5,recTauPtWeightedDetaStrip_ptGt1.0)" Label="TMath::Min(0.5,recTauPtWeightedDetaStrip_ptGt1.0)" Title="TMath::Min(0.5,recTauPtWeightedDetaStrip_ptGt1.0)" Unit="" Internal="TMath_Min_0.5,recTauPtWeightedDetaStrip_ptGt1.0_" Type="F" Min="0.00000000e+00" Max="5.00000000e-01"/>
    <Variable VarIndex="9" Expression="TMath::Min(0.5,recTauPtWeightedDphiStrip_ptGt1.0)" Label="TMath::Min(0.5,recTauPtWeightedDphiStrip_ptGt1.0)" Title="TMath::Min(0.5,recTauPtWeightedDphiStrip_ptGt1.0)" Unit="" Internal="TMath_Min_0.5,recTauPtWeightedDphiStrip_ptGt1.0_" Type="F" Min="0.00000000e+00" Max="5.00000000e-01"/>
    <Variable VarIndex="10" Expression="TMath::Min(0.5,recTauPtWeightedDrSignal_ptGt1.0)" Label="TMath::Min(0.5,recTauPtWeightedDrSignal_ptGt1.0)" Title="TMath::Min(0.5,recTauPtWeightedDrSignal_ptGt1.0)" Unit="" Internal="TMath_Min_0.5,recTauPtWeightedDrSignal_ptGt1.0_" Type="F" Min="0.00000000e+00" Max="1.85273051e-01"/>
    <Variable VarIndex="11" Expression="TMath::Min(0.5,recTauPtWeightedDrIsolation_ptGt1.0)" Label="TMath::Min(0.5,recTauPtWeightedDrIsolation_ptGt1.0)" Title="TMath::Min(0.5,recTauPtWeightedDrIsolation_ptGt1.0)" Unit="" Internal="TMath_Min_0.5,recTauPtWeightedDrIsolation_ptGt1.0_" Type="F" Min="0.00000000e+00" Max="5.00000000e-01"/>
    <Variable VarIndex="12" Expression="TMath::Min(1.,recTauEratio)" Label="TMath::Min(1.,recTauEratio)" Title="TMath::Min(1.,recTauEratio)" Unit="" Internal="TMath_Min_1.,recTauEratio_" Type="F" Min="-1.00000000e+00" Max="1.00000000e+00"/>
    <Variable VarIndex="13" Expression="TMath::Sign(+1.,recImpactParam)" Label="TMath::Sign(+1.,recImpactParam)" Title="TMath::Sign(+1.,recImpactParam)" Unit="" Internal="TMath_Sign__P_1.,recImpactParam_" Type="F" Min="-1.00000000e+00" Max="1.00000000e+00"/>
    <Variable VarIndex="14" Expression="TMath::Sqrt(TMath::Abs(TMath::Min(1.,TMath::Abs(recImpactParam))))" Label="TMath::Sqrt(TMath::Abs(TMath::Min(1.,TMath::Abs(recImpactParam))))" Title="TMath::Sqrt(TMath::Abs(TMath::Min(1.,TMath::Abs(recImpactParam))))" Unit="" Internal="TMath_Sqrt_TMath_Abs_TMath_Min_1.,TMath_Abs_recImpactParam____" Type="F" Min="0.00000000e+00" Max="1.00000000e+00"/>
    <Variable VarIndex="15" Expression="TMath::Min(10.,TMath::Abs(recImpactParamSign))" Label="TMath::Min(10.,TMath::Abs(recImpactParamSign))" Title="TMath::Min(10.,TMath::Abs(recImpactParamSign))" Unit="" Internal="TMath_Min_10.,TMath_Abs_recImpactParamSign__" Type="F" Min="0.00000000e+00" Max="1.00000000e+01"/>
    <Variable VarIndex="16" Expression="TMath::Sign(+1.,recImpactParam3D)" Label="TMath::Sign(+1.,recImpactParam3D)" Title="TMath::Sign(+1.,recImpactParam3D)" Unit="" Internal="TMath_Sign__P_1.,recImpactParam3D_" Type="F" Min="-1.00000000e+00" Max="1.00000000e+00"/>
    <Variable VarIndex="17" Expression="TMath::Sqrt(TMath::Abs(TMath::Min(1.,TMath::Abs(recImpactParam3D))))" Label="TMath::Sqrt(TMath::Abs(TMath::Min(1.,TMath::Abs(recImpactParam3D))))" Title="TMath::Sqrt(TMath::Abs(TMath::Min(1.,TMath::Abs(recImpactParam3D))))" Unit="" Internal="TMath_Sqrt_TMath_Abs_TMath_Min_1.,TMath_Abs_recImpactParam3D____" Type="F" Min="5.16170054e-04" Max="1.00000000e+00"/>
    <Variable VarIndex="18" Expression="TMath::Min(10.,TMath::Abs(recImpactParamSign3D))" Label="TMath::Min(10.,TMath::Abs(recImpactParamSign3D))" Title="TMath::Min(10.,TMath::Abs(recImpactParamSign3D))" Unit="" Internal="TMath_Min_10.,TMath_Abs_recImpactParamSign3D__" Type="F" Min="4.29860347e-06" Max="1.00000000e+01"/>
    <Variable VarIndex="19" Expression="hasRecDecayVertex" Label="hasRecDecayVertex" Title="hasRecDecayVertex" Unit="" Internal="hasRecDecayVertex" Type="I" Min="0.00000000e+00" Max="1.00000000e+00"/>
    <Variable VarIndex="20" Expression="TMath::Sqrt(recDecayDistMag)" Label="TMath::Sqrt(recDecayDistMag)" Title="TMath::Sqrt(recDecayDistMag)" Unit="" Internal="TMath_Sqrt_recDecayDistMag_" Type="F" Min="0.00000000e+00" Max="1.03928614e+01"/>
    <Variable VarIndex="21" Expression="TMath::Min(10.,recDecayDistSign)" Label="TMath::Min(10.,recDecayDistSign)" Title="TMath::Min(10.,recDecayDistSign)" Unit="" Internal="TMath_Min_10.,recDecayDistSign_" Type="F" Min="-1.54058517e+02" Max="1.00000000e+01"/>
    <Variable VarIndex="22" Expression="TMath::Max(-1.,recTauGJangleDiff)" Label="TMath::Max(-1.,recTauGJangleDiff)" Title="TMath::Max(-1.,recTauGJangleDiff)" Unit="" Internal="TMath_Max__M_1.,recTauGJangleDiff_" Type="F" Min="-1.00000000e+00" Max="3.14143014e+00"/>
  </Variables>
  <Spectators NSpec="25">
    <Spectator SpecIndex="0" Expression="recTauPt" Label="recTauPt" Title="recTauPt" Unit="" Internal="recTauPt" Type="F" Min="1.80000019e+01" Max="5.12845850e+03"/>
    <Spectator SpecIndex="1" Expression="leadPFChargedHadrCandPt" Label="leadPFChargedHadrCandPt" Title="leadPFChargedHadrCandPt" Unit="" Internal="leadPFChargedHadrCandPt" Type="F" Min="1.00097656e+00" Max="4.91600000e+03"/>
    <Spectator SpecIndex="2" Expression="numOfflinePrimaryVertices" Label="numOfflinePrimaryVertices" Title="numOfflinePrimaryVertices" Unit="" Internal="numOfflinePrimaryVertices" Type="F" Min="1.00000000e+00" Max="1.42000000e+02"/>
    <Spectator SpecIndex="3" Expression="genVisTauPt" Label="genVisTauPt" Title="genVisTauPt" Unit="" Internal="genVisTauPt" Type="F" Min="0.00000000e+00" Max="2.92345483e+03"/>
    <Spectator SpecIndex="4" Expression="genTauPt" Label="genTauPt" Title="genTauPt" Unit="" Internal="genTauPt" Type="F" Min="0.00000000e+00" Max="2.99540894e+03"/>
    <Spectator SpecIndex="5" Expression="byCombinedIsolationDeltaBetaCorrRaw3Hits" Label="byCombinedIsolationDeltaBetaCorrRaw3Hits" Title="byCombinedIsolationDeltaBetaCorrRaw3Hits" Unit="" Internal="byCombinedIsolationDeltaBetaCorrRaw3Hits" Type="F" Min="0.00000000e+00" Max="3.12178394e+03"/>
    <Spectator SpecIndex="6" Expression="byLooseCombinedIsolationDeltaBetaCorr3Hits" Label="byLooseCombinedIsolationDeltaBetaCorr3Hits" Title="byLooseCombinedIsolationDeltaBetaCorr3Hits" Unit="" Internal="byLooseCombinedIsolationDeltaBetaCorr3Hits" Type="F" Min="0.00000000e+00" Max="1.00000000e+00"/>
    <Spectator SpecIndex="7" Expression="byMediumCombinedIsolationDeltaBetaCorr3Hits" Label="byMediumCombinedIsolationDeltaBetaCorr3Hits" Title="byMediumCombinedIsolationDeltaBetaCorr3Hits" Unit="" Internal="byMediumCombinedIsolationDeltaBetaCorr3Hits" Type="F" Min="0.00000000e+00" Max="1.00000000e+00"/>
    <Spectator SpecIndex="8" Expression="byTightCombinedIsolationDeltaBetaCorr3Hits" Label="byTightCombinedIsolationDeltaBetaCorr3Hits" Title="byTightCombinedIsolationDeltaBetaCorr3Hits" Unit="" Internal="byTightCombinedIsolationDeltaBetaCorr3Hits" Type="F" Min="0.00000000e+00" Max="1.00000000e+00"/>
    <Spectator SpecIndex="9" Expression="byIsolationMVArun2v1DBoldDMwLTraw" Label="byIsolationMVArun2v1DBoldDMwLTraw" Title="byIsolationMVArun2v1DBoldDMwLTraw" Unit="" Internal="byIsolationMVArun2v1DBoldDMwLTraw" Type="F" Min="-9.99958813e-01" Max="9.99418437e-01"/>
    <Spectator SpecIndex="10" Expression="byIsolationMVArun2v1DBoldDMwLTraw2016" Label="byIsolationMVArun2v1DBoldDMwLTraw2016" Title="byIsolationMVArun2v1DBoldDMwLTraw2016" Unit="" Internal="byIsolationMVArun2v1DBoldDMwLTraw2016" Type="F" Min="-9.99977708e-01" Max="9.99377310e-01"/>
    <Spectator SpecIndex="11" Expression="byIsolationMVArun2017v2DBoldDMwLTraw2017" Label="byIsolationMVArun2017v2DBoldDMwLTraw2017" Title="byIsolationMVArun2017v2DBoldDMwLTraw2017" Unit="" Internal="byIsolationMVArun2017v2DBoldDMwLTraw2017" Type="F" Min="-9.99898195e-01" Max="9.97295141e-01"/>
    <Spectator SpecIndex="12" Expression="recTauNphoton" Label="recTauNphoton" Title="recTauNphoton" Unit="" Internal="recTauNphoton" Type="F" Min="0.00000000e+00" Max="4.10000000e+01"/>
    <Spectator SpecIndex="13" Expression="recTauNphoton_ptGt1.0" Label="recTauNphoton_ptGt1.0" Title="recTauNphoton_ptGt1.0" Unit="" Internal="recTauNphoton_ptGt1.0" Type="F" Min="0.00000000e+00" Max="4.10000000e+01"/>
    <Spectator SpecIndex="14" Expression="photonPtSumOutsideSignalCone_ptGt1.0" Label="photonPtSumOutsideSignalCone_ptGt1.0" Title="photonPtSumOutsideSignalCone_ptGt1.0" Unit="" Internal="photonPtSumOutsideSignalCone_ptGt1.0" Type="F" Min="0.00000000e+00" Max="1.28200000e+03"/>
    <Spectator SpecIndex="15" Expression="photonPtSumOutsideSignalConedRgt0p1_ptGt1.0" Label="photonPtSumOutsideSignalConedRgt0p1_ptGt1.0" Title="photonPtSumOutsideSignalConedRgt0p1_ptGt1.0" Unit="" Internal="photonPtSumOutsideSignalConedRgt0p1_ptGt1.0" Type="F" Min="0.00000000e+00" Max="5.37000000e+02"/>
    <Spectator SpecIndex="16" Expression="neutralIsoPtSum_ptGt1.0" Label="neutralIsoPtSum_ptGt1.0" Title="neutralIsoPtSum_ptGt1.0" Unit="" Internal="neutralIsoPtSum_ptGt1.0" Type="F" Min="0.00000000e+00" Max="3.12120410e+03"/>
    <Spectator SpecIndex="17" Expression="recTauPtWeightedDetaStrip_ptGt1.0" Label="recTauPtWeightedDetaStrip_ptGt1.0" Title="recTauPtWeightedDetaStrip_ptGt1.0" Unit="" Internal="recTauPtWeightedDetaStrip_ptGt1.0" Type="F" Min="0.00000000e+00" Max="5.44733047e-01"/>
    <Spectator SpecIndex="18" Expression="recTauPtWeightedDphiStrip_ptGt1.0" Label="recTauPtWeightedDphiStrip_ptGt1.0" Title="recTauPtWeightedDphiStrip_ptGt1.0" Unit="" Internal="recTauPtWeightedDphiStrip_ptGt1.0" Type="F" Min="0.00000000e+00" Max="6.56149626e-01"/>
    <Spectator SpecIndex="19" Expression="recTauPtWeightedDrSignal_ptGt1.0" Label="recTauPtWeightedDrSignal_ptGt1.0" Title="recTauPtWeightedDrSignal_ptGt1.0" Unit="" Internal="recTauPtWeightedDrSignal_ptGt1.0" Type="F" Min="0.00000000e+00" Max="1.85273051e-01"/>
    <Spectator SpecIndex="20" Expression="recTauPtWeightedDrIsolation_ptGt1.0" Label="recTauPtWeightedDrIsolation_ptGt1.0" Title="recTauPtWeightedDrIsolation_ptGt1.0" Unit="" Internal="recTauPtWeightedDrIsolation_ptGt1.0" Type="F" Min="0.00000000e+00" Max="6.58467948e-01"/>
    <Spectator SpecIndex="21" Expression="chargedIsoPtSumdR03" Label="chargedIsoPtSumdR03" Title="chargedIsoPtSumdR03" Unit="" Internal="chargedIsoPtSumdR03" Type="F" Min="0.00000000e+00" Max="1.37032843e+01"/>
    <Spectator SpecIndex="22" Expression="neutralIsoPtSumdR03" Label="neutralIsoPtSumdR03" Title="neutralIsoPtSumdR03" Unit="" Internal="neutralIsoPtSumdR03" Type="F" Min="0.00000000e+00" Max="3.12121338e+03"/>
    <Spectator SpecIndex="23" Expression="neutralIsoPtSum_IsoConeR0p3_ptGt1.0" Label="neutralIsoPtSum_IsoConeR0p3_ptGt1.0" Title="neutralIsoPtSum_IsoConeR0p3_ptGt1.0" Unit="" Internal="neutralIsoPtSum_IsoConeR0p3_ptGt1.0" Type="F" Min="0.00000000e+00" Max="3.12120410e+03"/>
    <Spectator SpecIndex="24" Expression="photonPtSumOutsideSignalCone_IsoConeR0p3_ptGt1.0" Label="photonPtSumOutsideSignalCone_IsoConeR0p3_ptGt1.0" Title="photonPtSumOutsideSignalCone_IsoConeR0p3_ptGt1.0" Unit="" Internal="photonPtSumOutsideSignalCone_IsoConeR0p3_ptGt1.0" Type="F" Min="0.00000000e+00" Max="1.28200000e+03"/>
  </Spectators>
  <Classes NClass="2">
    <Class Name="Signal" Index="0"/>
    <Class Name="Background" Index="1"/>
  </Classes>
  <Transformations NTransformations="0"/>
  <MVAPdfs/>
  <Weights NTrees="1000" AnalysisType="1">
    <BinaryTree type="DecisionTree" boostWeight="1.0000000000000000e+00" itree="0">
      <Node pos="s" depth="0" NCoef="0" IVar="2" Cut="9.3757897615432739e-01" cType="1" res="-1.8492490926291794e-04" rms="4.9999997019767761e-01" purity="4.9981507658958435e-01" nType="0">
        <Node pos="l" depth="1" NCoef="0" IVar="3" Cut="1.8020849227905273e+00" cType="1" res="3.1395646929740906e-01" rms="3.8914179801940918e-01" purity="8.1395643949508667e-01" nType="0">
          <Node pos="l" depth="2" NCoef="0" IVar="2" Cut="2.2952297329902649e-01" cType="1" res="3.7189313769340515e-01" rms="3.3420875668525696e-01" purity="8.7189316749572754e-01" nType="0">
            <Node pos="l" depth="3" NCoef="0" IVar="8" Cut="2.2954091429710388e-02" cType="1" res="4.1673037409782410e-01" rms="2.7628931403160095e-01" purity="9.1673034429550171e-01" nType="0">
              <Node pos="l" depth="4" NCoef="0" IVar="18" Cut="1.6966329813003540e+00" cType="1" res="4.4592639803886414e-01" rms="2.2616288065910339e-01" purity="9.4592642784118652e-01" nType="0">
                <Node pos="l" depth="5" NCoef="0" IVar="-1" Cut="0.0000000000000000e+00" cType="1" res="1.6430172324180603e-01" rms="2.8509807586669922e-01" purity="9.1075432300567627e-01" nType="-99"/>
                <Node pos="r" depth="5" NCoef="0" IVar="-1" Cut="0.0000000000000000e+00" cType="1" res="1.8630166351795197e-01" rms="1.8185999989509583e-01" purity="9.6575415134429932e-01" nType="-99"/>
              </Node>
              <Node pos="r" depth="4" NCoef="0" IVar="-1" Cut="0.0000000000000000e+00" cType="1" res="1.3530854880809784e-01" rms="3.6820170283317566e-01" purity="8.3827137947082520e-01" nType="-99"/>
            </Node>
            <Node pos="r" depth="3" NCoef="0" IVar="18" Cut="1.9173899888992310e+00" cType="1" res="2.1950630843639374e-01" rms="4.4924044609069824e-01" purity="7.1950632333755493e-01" nType="0">
              <Node pos="l" depth="4" NCoef="0" IVar="-1" Cut="0.0000000000000000e+00" cType="1" res="4.2570356279611588e-02" rms="4.8854225873947144e-01" purity="6.0642588138580322e-01" nType="-99"/>
              <Node pos="r" depth="4" NCoef="0" IVar="-1" Cut="0.0000000000000000e+00" cType="1" res="1.2912054359912872e-01" rms="3.8183674216270447e-01" purity="8.2280135154724121e-01" nType="-99"/>
            </Node>
          </Node>
          <Node pos="r" depth="2" NCoef="0" IVar="-1" Cut="0.0000000000000000e+00" cType="1" res="-7.9215183854103088e-02" rms="4.5910888910293579e-01" purity="3.0196204781532288e-01" nType="-99"/>
        </Node>
        <Node pos="r" depth="1" NCoef="0" IVar="2" Cut="1.5206352472305298e+00" cType="1" res="-3.4211865067481995e-01" rms="3.6462971568107605e-01" purity="1.5788133442401886e-01" nType="0">
          <Node pos="l" depth="2" NCoef="0" IVar="3" Cut="9.1001331806182861e-01" cType="1" res="-1.6468040645122528e-01" rms="4.7210207581520081e-01" purity="3.3531960844993591e-01" nType="0">
            <Node pos="l" depth="3" NCoef="0" IVar="-1" Cut="0.0000000000000000e+00" cType="1" res="-1.2826538644731045e-02" rms="4.9897068738937378e-01" purity="4.6793365478515625e-01" nType="-99"/>
            <Node pos="r" depth="3" NCoef="0" IVar="-1" Cut="0.0000000000000000e+00" cType="1" res="-1.5223723649978638e-01" rms="3.2426670193672180e-01" purity="1.1940690875053406e-01" nType="-99"/>
          </Node>
          <Node pos="r" depth="2" NCoef="0" IVar="22" Cut="2.2564247774425894e-04" cType="1" res="-4.1846451163291931e-01" rms="2.7365571260452271e-01" purity="8.1535480916500092e-02" nType="0">
            <Node pos="l" depth="3" NCoef="0" IVar="7" Cut="2.0359282493591309e+00" cType="1" res="-3.6607262492179871e-01" rms="3.4057426452636719e-01" purity="1.3392734527587891e-01" nType="0">
              <Node pos="l" depth="4" NCoef="0" IVar="-1" Cut="0.0000000000000000e+00" cType="1" res="-9.7088210284709930e-02" rms="4.3713468313217163e-01" purity="2.5727948546409607e-01" nType="-99"/>
              <Node pos="r" depth="4" NCoef="0" IVar="7" Cut="4.0239520072937012e+00" cType="1" res="-4.3071585893630981e-01" rms="2.5393670797348022e-01" purity="6.9284155964851379e-02" nType="0">
                <Node pos="l" depth="5" NCoef="0" IVar="-1" Cut="0.0000000000000000e+00" cType="1" res="-1.5779787302017212e-01" rms="3.0720344185829163e-01" purity="1.0550532490015030e-01" nType="-99"/>
                <Node pos="r" depth="5" NCoef="0" IVar="-1" Cut="0.0000000000000000e+00" cType="1" res="-1.8574482202529907e-01" rms="1.8538573384284973e-01" purity="3.5637933760881424e-02" nType="-99"/>
              </Node>
            </Node>
            <Node pos="r" depth="3" NCoef="0" IVar="3" Cut="2.2457070350646973e+00" cType="1" res="-4.8168408870697021e-01" rms="1.3409116864204407e-01" purity="1.8315913155674934e-02" nType="0">
              <Node pos="l" depth="4" NCoef="0" IVar="-1" Cut="0.0000000000000000e+00" cType="1" res="-1.8269294500350952e-01" rms="2.0345894992351532e-01" purity="4.3267630040645599e-02" nType="-99"/>
              <Node pos="r" depth="4" NCoef="0" IVar="-1" Cut="0.0000000000000000e+00" cType="1" res="-1.9854444265365601e-01" rms="6.0213260352611542e-02" purity="3.6388782318681479e-03" nType="-99"/>
            </Node>
          </Node>
        </Node>
      </Node>
    </BinaryTree>
    <BinaryTree type="DecisionTree" boostWeight="1.0000000000000000e+00" itree="1">
      <Node pos="s" depth="0" NCoef="0" IVar="2" Cut="1.0203069448471069e+00" cType="1" res="2.9479363001883030e-04" rms="4.4664081931114197e-01" purity="5.0034779310226440e-01" nType="0">
        <Node pos="l" depth="1" NCoef="0" IVar="22" Cut="8.4317056462168694e-03" cType="1" res="2.4362979829311371e-01" rms="3.7728065252304077e-01" purity="8.0288022756576538e-01" nType="0">
          <Node pos="l" depth="2" NCoef="0" IVar="7" Cut="3.0538921356201172e+00" cType="1" res="2.9518571496009827e-01" rms="3.3443590998649597e-01" purity="8.6089956760406494e-01" nType="0">
            <Node pos="l" depth="3" NCoef="0" IVar="2" Cut="4.5888176560401917e-01" cType="1" res="3.3665582537651062e-01" rms="2.8304174542427063e-01" purity="9.0656971931457520e-01" nType="0">
              <Node pos="l" depth="4" NCoef="0" IVar="7" Cut="1.0059880018234253e+00" cType="1" res="3.5815867781639099e-01" rms="2.4173779785633087e-01" purity="9.3543702363967896e-01" nType="0">
                <Node pos="l" depth="5" NCoef="0" IVar="-1" Cut="0.0000000000000000e+00" cType="1" res="1.5578439831733704e-01" rms="1.9315245747566223e-01" purity="9.6041357517242432e-01" nType="-99"/>
                <Node pos="r" depth="5" NCoef="0" IVar="-1" Cut="0.0000000000000000e+00" cType="1" res="1.3431531190872192e-01" rms="2.9746863245964050e-01" purity="8.9810460805892944e-01" nType="-99"/>
              </Node>
              <Node pos="r" depth="4" NCoef="0" IVar="-1" Cut="0.0000000000000000e+00" cType="1" res="9.1812655329704285e-02" rms="4.1935405135154724e-01" purity="7.6007294654846191e-01" nType="-99"/>
            </Node>
            <Node pos="r" depth="3" NCoef="0" IVar="-1" Cut="0.0000000000000000e+00" cType="1" res="3.1997870653867722e-02" rms="4.7081676125526428e-01" purity="6.2248641252517700e-01" nType="-99"/>
          </Node>
          <Node pos="r" depth="2" NCoef="0" IVar="-1" Cut="0.0000000000000000e+00" cType="1" res="-6.3801810145378113e-02" rms="4.4501793384552002e-01" purity="3.5160493850708008e-01" nType="-99"/>
        </Node>
        <Node pos="r" depth="1" NCoef="0" IVar="2" Cut="1.6166559457778931e+00" cType="1" res="-2.8418028354644775e-01" rms="3.4080541133880615e-01" purity="1.4666697382926941e-01" nType="0">
          <Node pos="l" depth="2" NCoef="0" IVar="7" Cut="2.0259480476379395e+00" cType="1" res="-1.6511671245098114e-01" rms="4.4324332475662231e-01" purity="2.9283168911933899e-01" nType="0">
            <Node pos="l" depth="3" NCoef="0" IVar="-1" Cut="0.0000000000000000e+00" cType="1" res="-8.7435692548751831e-03" rms="4.8775815963745117e-01" purity="4.4966641068458557e-01" nType="-99"/>
            <Node pos="r" depth="3" NCoef="0" IVar="-1" Cut="0.0000000000000000e+00" cType="1" res="-1.1795610189437866e-01" rms="3.5622167587280273e-01" purity="1.5630237758159637e-01" nType="-99"/>
          </Node>
          <Node pos="r" depth="2" NCoef="0" IVar="7" Cut="1.0179641246795654e+00" cType="1" res="-3.4576731920242310e-01" rms="2.5194844603538513e-01" purity="7.1061573922634125e-02" nType="0">
            <Node pos="l" depth="3" NCoef="0" IVar="-1" Cut="0.0000000000000000e+00" cType="1" res="-1.0546773672103882e-01" rms="3.7090933322906494e-01" purity="1.7199683189392090e-01" nType="-99"/>
            <Node pos="r" depth="3" NCoef="0" IVar="22" Cut="1.9731208158191293e-04" cType="1" res="-3.6562439799308777e-01" rms="2.1112780272960663e-01" purity="4.8222169280052185e-02" nType="0">
              <Node pos="l" depth="4" NCoef="0" IVar="18" Cut="1.6579641103744507e+00" cType="1" res="-3.4031942486763000e-01" rms="2.7149486541748047e-01" purity="8.1688307225704193e-02" nType="0">
                <Node pos="l" depth="5" NCoef="0" IVar="-1" Cut="0.0000000000000000e+00" cType="1" res="-1.5392604470252991e-01" rms="2.0960514247417450e-01" purity="4.6809643507003784e-02" nType="-99"/>
                <Node pos="r" depth="5" NCoef="0" IVar="-1" Cut="0.0000000000000000e+00" cType="1" res="-1.1874167621135712e-01" rms="3.3624249696731567e-01" purity="1.3289430737495422e-01" nType="-99"/>
              </Node>
              <Node pos="r" depth="4" NCoef="0" IVar="-1" Cut="0.0000000000000000e+00" cType="1" res="-1.6470630466938019e-01" rms="8.5178144276142120e-02" purity="7.3494599200785160e-03" nType="-99"/>
            </Node>
          </Node>
        </Node>
      </Node>
    </BinaryTree>
    <BinaryTree type="DecisionTree" boostWeight="1.0000000000000000e+00" itree="2">
      <Node pos="s" depth="0" NCoef="0" IVar="2" Cut="7.8591209650039673e-01" cType="1" res="-1.5420162526424974e-04" rms="4.0846842527389526e-01" purity="4.9983608722686768e-01" nType="0">
        <Node pos="l" depth="1" NCoef="0" IVar="3" Cut="1.6487597227096558e+00" cType="1" res="2.1723230183124542e-01" rms="3.4325206279754639e-01" purity="8.3127319812774658e-01" nType="0">
          <Node pos="l" depth="2" NCoef="0" IVar="5" Cut="1.1787345409393311e+00" cType="1" res="2.5680804252624512e-01" rms="3.0445149540901184e-01" purity="8.8723051548004150e-01" nType="0">
            <Node pos="l" depth="3" NCoef="0" IVar="2" Cut="-2.1483220160007477e-01" cType="1" res="2.7622702717781067e-01" rms="2.7532920241355896e-01" purity="9.1047871112823486e-01" nType="0">
              <Node pos="l" depth="4" NCoef="0" IVar="18" Cut="1.3972327709197998e+00" cType="1" res="3.0074411630630493e-01" rms="2.2295007109642029e-01" purity="9.4521468877792358e-01" nType="0">
                <Node pos="l" depth="5" NCoef="0" IVar="-1" Cut="0.0000000000000000e+00" cType="1" res="1.1766292154788971e-01" rms="2.8583940863609314e-01" purity="9.0667217969894409e-01" nType="-99"/>
                <Node pos="r" depth="5" NCoef="0" IVar="-1" Cut="0.0000000000000000e+00" cType="1" res="1.3754792511463165e-01" rms="1.9050918519496918e-01" purity="9.6077913045883179e-01" nType="-99"/>
              </Node>
              <Node pos="r" depth="4" NCoef="0" IVar="18" Cut="1.8567212820053101e+00" cType="1" res="2.1760044991970062e-01" rms="3.6516040563583374e-01" purity="8.2741594314575195e-01" nType="0">
                <Node pos="l" depth="5" NCoef="0" IVar="-1" Cut="0.0000000000000000e+00" cType="1" res="6.1674997210502625e-02" rms="4.2849594354629517e-01" purity="7.3707664012908936e-01" nType="-99"/>
                <Node pos="r" depth="5" NCoef="0" IVar="-1" Cut="0.0000000000000000e+00" cType="1" res="1.1654185503721237e-01" rms="2.9610097408294678e-01" purity="8.9745056629180908e-01" nType="-99"/>
              </Node>
            </Node>
            <Node pos="r" depth="3" NCoef="0" IVar="-1" Cut="0.0000000000000000e+00" cType="1" res="4.5477326959371567e-02" rms="4.4354492425918579e-01" purity="7.0975387096405029e-01" nType="-99"/>
          </Node>
          <Node pos="r" depth="2" NCoef="0" IVar="-1" Cut="0.0000000000000000e+00" cType="1" res="-4.7976676374673843e-02" rms="4.5281282067298889e-01" purity="3.5703653097152710e-01" nType="-99"/>
        </Node>
        <Node pos="r" depth="1" NCoef="0" IVar="2" Cut="1.3732066154479980e+00" cType="1" res="-2.1006275713443756e-01" rms="3.5283368825912476e-01" purity="1.7980016767978668e-01" nType="0">
          <Node pos="l" depth="2" NCoef="0" IVar="7" Cut="2.0259480476379395e+00" cType="1" res="-5.9217050671577454e-02" rms="4.6505951881408691e-01" purity="4.1099652647972107e-01" nType="0">
            <Node pos="l" depth="3" NCoef="0" IVar="-1" Cut="0.0000000000000000e+00" cType="1" res="2.9563888907432556e-02" rms="4.7734358906745911e-01" purity="5.7746344804763794e-01" nType="-99"/>
            <Node pos="r" depth="3" NCoef="0" IVar="-1" Cut="0.0000000000000000e+00" cType="1" res="-8.3615511655807495e-02" rms="4.0591746568679810e-01" purity="2.3192185163497925e-01" nType="-99"/>
          </Node>
          <Node pos="r" depth="2" NCoef="0" IVar="22" Cut="1.8493192328605801e-04" cType="1" res="-2.6278945803642273e-01" rms="2.8578668832778931e-01" purity="9.8987661302089691e-02" nType="0">
            <Node pos="l" depth="3" NCoef="0" IVar="7" Cut="2.0359282493591309e+00" cType="1" res="-2.1697738766670227e-01" rms="3.5382676124572754e-01" purity="1.5985080599784851e-01" nType="0">
              <Node pos="l" depth="4" NCoef="0" IVar="-1" Cut="0.0000000000000000e+00" cType="1" res="-4.7151464968919754e-02" rms="4.4863650202751160e-01" purity="2.9906433820724487e-01" nType="-99"/>
              <Node pos="r" depth="4" NCoef="0" IVar="2" Cut="1.8443893194198608e+00" cType="1" res="-2.7452117204666138e-01" rms="2.7123805880546570e-01" purity="8.2330480217933655e-02" nType="0">
                <Node pos="l" depth="5" NCoef="0" IVar="-1" Cut="0.0000000000000000e+00" cType="1" res="-1.0024023056030273e-01" rms="3.4038782119750977e-01" purity="1.3660086691379547e-01" nType="-99"/>
                <Node pos="r" depth="5" NCoef="0" IVar="-1" Cut="0.0000000000000000e+00" cType="1" res="-1.3379041850566864e-01" rms="2.0573110878467560e-01" purity="4.4907394796609879e-02" nType="-99"/>
              </Node>
            </Node>
            <Node pos="r" depth="3" NCoef="0" IVar="21" Cut="7.6229184865951538e-01" cType="1" res="-3.2028171420097351e-01" rms="1.4532673358917236e-01" purity="2.2606955841183662e-02" nType="0">
              <Node pos="l" depth="4" NCoef="0" IVar="-1" Cut="0.0000000000000000e+00" cType="1" res="-1.4819476008415222e-01" rms="1.0005830228328705e-01" purity="1.0045790113508701e-02" nType="-99"/>
              <Node pos="r" depth="4" NCoef="0" IVar="-1" Cut="0.0000000000000000e+00" cType="1" res="-1.3274826109409332e-01" rms="2.0101206004619598e-01" purity="4.5280799269676208e-02" nType="-99"/>
            </Node>
          </Node>
        </Node>
      </Node>
    </BinaryTree>
    <BinaryTree type="DecisionTree" boostWeight="1.0000000000000000e+00" itree="3">
      <Node pos="s" depth="0" NCoef="0" IVar="2" Cut="7.1697241067886353e-01" cType="1" res="-2.0356818276923150e-04" rms="3.8069963455200195e-01" purity="4.9980500340461731e-01" nType="0">
        <Node pos="l" depth="1" NCoef="0" IVar="3" Cut="1.4729464054107666e+00" cType="1" res="1.8043012917041779e-01" rms="3.2886597514152527e-01" purity="8.3829766511917114e-01" nType="0">
          <Node pos="l" depth="2" NCoef="0" IVar="7" Cut="3.0439121723175049e+00" cType="1" res="2.1305385231971741e-01" rms="2.9314243793487549e-01" purity="8.9496439695358276e-01" nType="0">
            <Node pos="l" depth="3" NCoef="0" IVar="2" Cut="-3.5595530271530151e-01" cType="1" res="2.2859770059585571e-01" rms="2.6288592815399170e-01" purity="9.1907274723052979e-01" nType="0">
              <Node pos="l" depth="4" NCoef="0" IVar="17" Cut="5.6803550571203232e-02" cType="1" res="2.4701841175556183e-01" rms="2.1377962827682495e-01" purity="9.5006793737411499e-01" nType="0">
                <Node pos="l" depth="5" NCoef="0" IVar="-1" Cut="0.0000000000000000e+00" cType="1" res="1.0464899241924286e-01" rms="2.7547898888587952e-01" purity="9.1414737701416016e-01" nType="-99"/>
                <Node pos="r" depth="5" NCoef="0" IVar="-1" Cut="0.0000000000000000e+00" cType="1" res="1.2421283870935440e-01" rms="1.8442724645137787e-01" purity="9.6359360218048096e-01" nType="-99"/>
              </Node>
              <Node pos="r" depth="4" NCoef="0" IVar="15" Cut="1.4171695709228516e+00" cType="1" res="1.8927691876888275e-01" rms="3.4176549315452576e-01" purity="8.5291045904159546e-01" nType="0">
                <Node pos="l" depth="5" NCoef="0" IVar="-1" Cut="0.0000000000000000e+00" cType="1" res="6.2874615192413330e-02" rms="3.9705780148506165e-01" purity="7.8730762004852295e-01" nType="-99"/>
                <Node pos="r" depth="5" NCoef="0" IVar="-1" Cut="0.0000000000000000e+00" cType="1" res="1.0798630863428116e-01" rms="2.7312612533569336e-01" purity="9.1428387165069580e-01" nType="-99"/>
              </Node>
            </Node>
            <Node pos="r" depth="3" NCoef="0" IVar="-1" Cut="0.0000000000000000e+00" cType="1" res="4.2802017182111740e-02" rms="4.3971318006515503e-01" purity="7.2037017345428467e-01" nType="-99"/>
          </Node>
          <Node pos="r" depth="2" NCoef="0" IVar="-1" Cut="0.0000000000000000e+00" cType="1" res="-2.8436090797185898e-02" rms="4.5572000741958618e-01" purity="4.0514323115348816e-01" nType="-99"/>
        </Node>
        <Node pos="r" depth="1" NCoef="0" IVar="22" Cut="2.2564247774425894e-04" cType="1" res="-1.6559307277202606e-01" rms="3.4839498996734619e-01" purity="1.8987876176834106e-01" nType="0">
          <Node pos="l" depth="2" NCoef="0" IVar="2" Cut="1.4733822345733643e+00" cType="1" res="-1.0000533610582352e-01" rms="4.0885561704635620e-01" purity="2.8659749031066895e-01" nType="0">
            <Node pos="l" depth="3" NCoef="0" IVar="8" Cut="1.6954900696873665e-02" cType="1" res="3.7585593760013580e-02" rms="4.7226276993751526e-01" purity="5.1818078756332397e-01" nType="0">
              <Node pos="l" depth="4" NCoef="0" IVar="-1" Cut="0.0000000000000000e+00" cType="1" res="6.4592443406581879e-02" rms="4.5378157496452332e-01" purity="6.6463780403137207e-01" nType="-99"/>
              <Node pos="r" depth="4" NCoef="0" IVar="-1" Cut="0.0000000000000000e+00" cType="1" res="-4.3757207691669464e-02" rms="4.5399579405784607e-01" purity="3.4340482950210571e-01" nType="-99"/>
            </Node>
            <Node pos="r" depth="3" NCoef="0" IVar="18" Cut="2.3165919780731201e+00" cType="1" res="-1.8606543540954590e-01" rms="3.3611086010932922e-01" purity="1.4174720644950867e-01" nType="0">
              <Node pos="l" depth="4" NCoef="0" IVar="2" Cut="1.8772250413894653e+00" cType="1" res="-2.2853454947471619e-01" rms="2.8411686420440674e-01" purity="9.5324240624904633e-02" nType="0">
                <Node pos="l" depth="5" NCoef="0" IVar="-1" Cut="0.0000000000000000e+00" cType="1" res="-8.3906047046184540e-02" rms="3.5003721714019775e-01" purity="1.5413597226142883e-01" nType="-99"/>
                <Node pos="r" depth="5" NCoef="0" IVar="-1" Cut="0.0000000000000000e+00" cType="1" res="-1.2108635157346725e-01" rms="2.2164773941040039e-01" purity="5.3871814161539078e-02" nType="-99"/>
              </Node>
              <Node pos="r" depth="4" NCoef="0" IVar="-1" Cut="0.0000000000000000e+00" cType="1" res="-3.4155413508415222e-02" rms="4.2411810159683228e-01" purity="2.6232025027275085e-01" nType="-99"/>
            </Node>
          </Node>
          <Node pos="r" depth="2" NCoef="0" IVar="21" Cut="1.3338165283203125e+00" cType="1" res="-2.6304203271865845e-01" rms="1.9356283545494080e-01" purity="4.6175971627235413e-02" nType="0">
            <Node pos="l" depth="3" NCoef="0" IVar="2" Cut="1.6854339838027954e+00" cType="1" res="-2.8100866079330444e-01" rms="1.4734068512916565e-01" purity="2.3483768105506897e-02" nType="0">
              <Node pos="l" depth="4" NCoef="0" IVar="-1" Cut="0.0000000000000000e+00" cType="1" res="-1.3767613470554352e-01" rms="2.1311037242412567e-01" purity="5.1366344094276428e-02" nType="-99"/>
              <Node pos="r" depth="4" NCoef="0" IVar="-1" Cut="0.0000000000000000e+00" cType="1" res="-1.3370034098625183e-01" rms="8.6715042591094971e-02" purity="7.6387068256735802e-03" nType="-99"/>
            </Node>
            <Node pos="r" depth="3" NCoef="0" IVar="-1" Cut="0.0000000000000000e+00" cType="1" res="-1.0077837109565735e-01" rms="2.7860525250434875e-01" purity="1.0882981866598129e-01" nType="-99"/>
          </Node>
        </Node>
      </Node>
    </BinaryTree>
    <BinaryTree type="DecisionTree" boostWeight="1.0000000000000000e+00" itree="4">
      <Node pos="s" depth="0" NCoef="0" IVar="2" Cut="1.1168224811553955e+00" cType="1" res="1.0537353773543146e-05" rms="3.5949343442916870e-01" purity="4.9991473555564880e-01" nType="0">
        <Node pos="l" depth="1" NCoef="0" IVar="22" Cut="1.6685422509908676e-02" cType="1" res="1.2487807869911194e-01" rms="3.4804970026016235e-01" purity="7.8840529918670654e-01" nType="0">
          <Node pos="l" depth="2" NCoef="0" IVar="7" Cut="3.0538921356201172e+00" cType="1" res="1.5814737975597382e-01" rms="3.2665625214576721e-01" purity="8.4333425760269165e-01" nType="0">
            <Node pos="l" depth="3" NCoef="0" IVar="18" Cut="1.4371527433395386e+00" cType="1" res="1.8573889136314392e-01" rms="2.8568857908248901e-01" purity="8.9478719234466553e-01" nType="0">
              <Node pos="l" depth="4" NCoef="0" IVar="2" Cut="-2.5371640920639038e-01" cType="1" res="1.3967330753803253e-01" rms="3.5479688644409180e-01" purity="8.2395035028457642e-01" nType="0">
                <Node pos="l" depth="5" NCoef="0" IVar="-1" Cut="0.0000000000000000e+00" cType="1" res="9.5966093242168427e-02" rms="2.7152493596076965e-01" purity="9.1622543334960938e-01" nType="-99"/>
                <Node pos="r" depth="5" NCoef="0" IVar="-1" Cut="0.0000000000000000e+00" cType="1" res="2.9519807547330856e-02" rms="4.4363310933113098e-01" purity="6.8330073356628418e-01" nType="-99"/>
              </Node>
              <Node pos="r" depth="4" NCoef="0" IVar="1" Cut="1.6178996562957764e+00" cType="1" res="2.0566976070404053e-01" rms="2.4728870391845703e-01" purity="9.2543566226959229e-01" nType="0">
                <Node pos="l" depth="5" NCoef="0" IVar="-1" Cut="0.0000000000000000e+00" cType="1" res="1.1367274075746536e-01" rms="2.2256526350975037e-01" purity="9.4222849607467651e-01" nType="-99"/>
                <Node pos="r" depth="5" NCoef="0" IVar="-1" Cut="0.0000000000000000e+00" cType="1" res="8.5613831877708435e-02" rms="2.9343879222869873e-01" purity="8.8624733686447144e-01" nType="-99"/>
              </Node>
            </Node>
            <Node pos="r" depth="3" NCoef="0" IVar="-1" Cut="0.0000000000000000e+00" cType="1" res="8.5746115073561668e-03" rms="4.5755475759506226e-01" purity="5.8588749170303345e-01" nType="-99"/>
          </Node>
          <Node pos="r" depth="2" NCoef="0" IVar="-1" Cut="0.0000000000000000e+00" cType="1" res="-7.5554132461547852e-02" rms="3.8896039128303528e-01" purity="2.9287624359130859e-01" nType="-99"/>
        </Node>
        <Node pos="r" depth="1" NCoef="0" IVar="7" Cut="1.0179641246795654e+00" cType="1" res="-1.5886479616165161e-01" rms="3.0734014511108398e-01" purity="1.3285350799560547e-01" nType="0">
          <Node pos="l" depth="2" NCoef="0" IVar="-1" Cut="0.0000000000000000e+00" cType="1" res="-2.5370649993419647e-02" rms="4.1637960076332092e-01" purity="2.9776617884635925e-01" nType="-99"/>
          <Node pos="r" depth="2" NCoef="0" IVar="18" Cut="2.4555387496948242e+00" cType="1" res="-1.8643338978290558e-01" rms="2.6419717073440552e-01" purity="8.8867276906967163e-02" nType="0">
            <Node pos="l" depth="3" NCoef="0" IVar="8" Cut="2.3952096700668335e-02" cType="1" res="-2.0663419365882874e-01" rms="2.2549191117286682e-01" purity="6.1043743044137955e-02" nType="0">
              <Node pos="l" depth="4" NCoef="0" IVar="-1" Cut="0.0000000000000000e+00" cType="1" res="-8.9994199573993683e-02" rms="2.9181715846061707e-01" purity="1.0978820174932480e-01" nType="-99"/>
              <Node pos="r" depth="4" NCoef="0" IVar="5" Cut="1.1338466405868530e+00" cType="1" res="-2.1767085790634155e-01" rms="1.9146202504634857e-01" purity="4.1490312665700912e-02" nType="0">
                <Node pos="l" depth="5" NCoef="0" IVar="-1" Cut="0.0000000000000000e+00" cType="1" res="-1.1219229549169540e-01" rms="1.9308473169803619e-01" purity="4.3530549854040146e-02" nType="-99"/>
                <Node pos="r" depth="5" NCoef="0" IVar="-1" Cut="0.0000000000000000e+00" cType="1" res="-1.2106991559267044e-01" rms="1.8608158826828003e-01" purity="3.6848224699497223e-02" nType="-99"/>
              </Node>
            </Node>
            <Node pos="r" depth="3" NCoef="0" IVar="-1" Cut="0.0000000000000000e+00" cType="1" res="-6.1765559017658234e-02" rms="3.4855020046234131e-01" purity="1.7185984551906586e-01" nType="-99"/>
          </Node>
        </Node>
      </Node>
    </BinaryTree>
    <BinaryTree type="DecisionTree" boostWeight="1.0000000000000000e+00" itree="5">
      <Node pos="s" depth="0" NCoef="0" IVar="2" Cut="5.9288102388381958e-01" cType="1" res="3.3238029573112726e-04" rms="3.4510278701782227e-01" purity="5.0034010410308838e-01" nType="0">
        <Node pos="l" depth="1" NCoef="0" IVar="22" Cut="1.6898167086765170e-04" cType="1" res="1.2822754681110382e-01" rms="3.0833172798156738e-01" purity="8.5000765323638916e-01" nType="0">
          <Node pos="l" depth="2" NCoef="0" IVar="8" Cut="3.0905965715646744e-02" cType="1" res="1.5418556332588196e-01" rms="2.7964952588081360e-01" purity="9.0332639217376709e-01" nType="0">
            <Node pos="l" depth="3" NCoef="0" IVar="18" Cut="2.0958142280578613e+00" cType="1" res="1.7431361973285675e-01" rms="2.3425838351249695e-01" purity="9.3788117170333862e-01" nType="0">
              <Node pos="l" depth="4" NCoef="0" IVar="2" Cut="-6.9366264343261719e-01" cType="1" res="1.5773193538188934e-01" rms="2.8377732634544373e-01" purity="9.0511554479598999e-01" nType="0">
                <Node pos="l" depth="5" NCoef="0" IVar="-1" Cut="0.0000000000000000e+00" cType="1" res="1.0056777298450470e-01" rms="2.2861583530902863e-01" purity="9.4399845600128174e-01" nType="-99"/>
                <Node pos="r" depth="5" NCoef="0" IVar="-1" Cut="0.0000000000000000e+00" cType="1" res="6.7765928804874420e-02" rms="3.4312498569488525e-01" purity="8.5252052545547485e-01" nType="-99"/>
              </Node>
              <Node pos="r" depth="4" NCoef="0" IVar="17" Cut="1.2397166341543198e-01" cType="1" res="1.8729248642921448e-01" rms="1.8551135063171387e-01" purity="9.6352756023406982e-01" nType="0">
                <Node pos="l" depth="5" NCoef="0" IVar="-1" Cut="0.0000000000000000e+00" cType="1" res="1.1505235731601715e-01" rms="1.6586069762706757e-01" purity="9.7230893373489380e-01" nType="-99"/>
                <Node pos="r" depth="5" NCoef="0" IVar="-1" Cut="0.0000000000000000e+00" cType="1" res="9.9682241678237915e-02" rms="2.2088165581226349e-01" purity="9.4467592239379883e-01" nType="-99"/>
              </Node>
            </Node>
            <Node pos="r" depth="3" NCoef="0" IVar="-1" Cut="0.0000000000000000e+00" cType="1" res="4.7162774950265884e-02" rms="3.7791520357131958e-01" purity="8.0050951242446899e-01" nType="-99"/>
          </Node>
          <Node pos="r" depth="2" NCoef="0" IVar="-1" Cut="0.0000000000000000e+00" cType="1" res="-7.5434832833707333e-03" rms="4.0544328093528748e-01" purity="5.5278730392456055e-01" nType="-99"/>
        </Node>
        <Node pos="r" depth="1" NCoef="0" IVar="3" Cut="1.3037472963333130e+00" cType="1" res="-1.0662083327770233e-01" rms="3.3774444460868835e-01" purity="2.0792818069458008e-01" nType="0">
          <Node pos="l" depth="2" NCoef="0" IVar="18" Cut="2.0962283611297607e+00" cType="1" res="-5.3323864936828613e-02" rms="3.9629665017127991e-01" purity="3.1378185749053955e-01" nType="0">
            <Node pos="l" depth="3" NCoef="0" IVar="5" Cut="9.5927578210830688e-01" cType="1" res="-1.1814533174037933e-01" rms="3.5995703935623169e-01" purity="2.1701252460479736e-01" nType="0">
              <Node pos="l" depth="4" NCoef="0" IVar="2" Cut="1.7053860425949097e+00" cType="1" res="-8.1689521670341492e-02" rms="3.9512938261032104e-01" purity="2.8274166584014893e-01" nType="0">
                <Node pos="l" depth="5" NCoef="0" IVar="-1" Cut="0.0000000000000000e+00" cType="1" res="-8.6234733462333679e-03" rms="4.5643848180770874e-01" purity="4.3570536375045776e-01" nType="-99"/>
                <Node pos="r" depth="5" NCoef="0" IVar="-1" Cut="0.0000000000000000e+00" cType="1" res="-8.5066780447959900e-02" rms="2.8400310873985291e-01" purity="9.2868685722351074e-02" nType="-99"/>
              </Node>
              <Node pos="r" depth="4" NCoef="0" IVar="-1" Cut="0.0000000000000000e+00" cType="1" res="-1.0213828086853027e-01" rms="2.6079764962196350e-01" purity="8.4637850522994995e-02" nType="-99"/>
            </Node>
            <Node pos="r" depth="3" NCoef="0" IVar="8" Cut="1.8949594348669052e-02" cType="1" res="6.4178176224231720e-02" rms="4.3063244223594666e-01" purity="4.8919597268104553e-01" nType="0">
              <Node pos="l" depth="4" NCoef="0" IVar="-1" Cut="0.0000000000000000e+00" cType="1" res="7.0828542113304138e-02" rms="4.2169019579887390e-01" purity="6.3328850269317627e-01" nType="-99"/>
              <Node pos="r" depth="4" NCoef="0" IVar="-1" Cut="0.0000000000000000e+00" cType="1" res="-2.2445611655712128e-02" rms="4.1462403535842896e-01" purity="3.1490072607994080e-01" nType="-99"/>
            </Node>
          </Node>
          <Node pos="r" depth="2" NCoef="0" IVar="11" Cut="3.0738523602485657e-01" cType="1" res="-1.8796792626380920e-01" rms="1.9369694590568542e-01" purity="4.6363826841115952e-02" nType="0">
            <Node pos="l" depth="3" NCoef="0" IVar="2" Cut="1.6541980504989624e+00" cType="1" res="-2.0394676923751831e-01" rms="1.5678998827934265e-01" purity="2.8435930609703064e-02" nType="0">
              <Node pos="l" depth="4" NCoef="0" IVar="-1" Cut="0.0000000000000000e+00" cType="1" res="-1.1496167629957199e-01" rms="2.2469672560691833e-01" purity="6.1570711433887482e-02" nType="-99"/>
              <Node pos="r" depth="4" NCoef="0" IVar="-1" Cut="0.0000000000000000e+00" cType="1" res="-1.1960480362176895e-01" rms="9.7595475614070892e-02" purity="9.7552128136157990e-03" nType="-99"/>
            </Node>
            <Node pos="r" depth="3" NCoef="0" IVar="-1" Cut="0.0000000000000000e+00" cType="1" res="-8.4163270890712738e-02" rms="2.6121208071708679e-01" purity="9.2141851782798767e-02" nType="-99"/>
          </Node>
        </Node>
      </Node>
    </BinaryTree>
    <BinaryTree type="DecisionTree" boostWeight="1.0000000000000000e+00" itree="6">
      <Node pos="s" depth="0" NCoef="0" IVar="2" Cut="4.4121375679969788e-01" cType="1" res="-9.7160685982089490e-05" rms="3.3307486772537231e-01" purity="5.0011104345321655e-01" nType="0">
        <Node pos="l" depth="1" NCoef="0" IVar="3" Cut="1.3378463983535767e+00" cType="1" res="1.0984209924936295e-01" rms="2.9678732156753540e-01" purity="8.6115014553070068e-01" nType="0">
          <Node pos="l" depth="2" NCoef="0" IVar="5" Cut="1.0133666992187500e+00" cType="1" res="1.2840709090232849e-01" rms="2.6786825060844421e-01" purity="9.1300159692764282e-01" nType="0">
            <Node pos="l" depth="3" NCoef="0" IVar="1" Cut="1.4465243816375732e+00" cType="1" res="1.3847607374191284e-01" rms="2.3930259048938751e-01" purity="9.3355470895767212e-01" nType="0">
              <Node pos="l" depth="4" NCoef="0" IVar="7" Cut="1.0099800825119019e+00" cType="1" res="1.4975428581237793e-01" rms="2.2309492528438568e-01" purity="9.4297856092453003e-01" nType="0">
                <Node pos="l" depth="5" NCoef="0" IVar="-1" Cut="0.0000000000000000e+00" cType="1" res="1.0252784192562103e-01" rms="1.8886592984199524e-01" purity="9.5995980501174927e-01" nType="-99"/>
                <Node pos="r" depth="5" NCoef="0" IVar="-1" Cut="0.0000000000000000e+00" cType="1" res="8.0875515937805176e-02" rms="2.6450735330581665e-01" purity="9.1820096969604492e-01" nType="-99"/>
              </Node>
              <Node pos="r" depth="4" NCoef="0" IVar="18" Cut="2.1756520271301270e+00" cType="1" res="1.1696865409612656e-01" rms="2.6618090271949768e-01" purity="9.1558367013931274e-01" nType="0">
                <Node pos="l" depth="5" NCoef="0" IVar="-1" Cut="0.0000000000000000e+00" cType="1" res="5.7553790509700775e-02" rms="3.1558531522750854e-01" purity="8.7633168697357178e-01" nType="-99"/>
                <Node pos="r" depth="5" NCoef="0" IVar="-1" Cut="0.0000000000000000e+00" cType="1" res="8.8958866894245148e-02" rms="2.1647213399410248e-01" purity="9.4752603769302368e-01" nType="-99"/>
              </Node>
            </Node>
            <Node pos="r" depth="3" NCoef="0" IVar="-1" Cut="0.0000000000000000e+00" cType="1" res="3.1581107527017593e-02" rms="4.0122464299201965e-01" purity="7.7940541505813599e-01" nType="-99"/>
          </Node>
          <Node pos="r" depth="2" NCoef="0" IVar="-1" Cut="0.0000000000000000e+00" cType="1" res="-1.1945184320211411e-02" rms="4.3295520544052124e-01" purity="4.7766587138175964e-01" nType="-99"/>
        </Node>
        <Node pos="r" depth="1" NCoef="0" IVar="6" Cut="1.0000000000000000e+00" cType="1" res="-4.7044474631547928e-03" rms="8.9692391455173492e-02" purity="2.2829686105251312e-01" nType="0">
          <Node pos="l" depth="2" NCoef="0" IVar="-1" Cut="0.0000000000000000e+00" cType="1" res="3.3622875809669495e-02" rms="4.1786959767341614e-01" purity="5.1363933086395264e-01" nType="-99"/>
          <Node pos="r" depth="2" NCoef="0" IVar="22" Cut="8.4919696673750877e-03" cType="1" res="-1.0792984068393707e-01" rms="3.1230214238166809e-01" purity="1.8173260986804962e-01" nType="0">
            <Node pos="l" depth="3" NCoef="0" IVar="7" Cut="3.0099799633026123e+00" cType="1" res="-7.1302354335784912e-02" rms="3.6509406566619873e-01" purity="2.6642200350761414e-01" nType="0">
              <Node pos="l" depth="4" NCoef="0" IVar="2" Cut="1.7192814350128174e+00" cType="1" res="-9.0746814385056496e-03" rms="4.1048681735992432e-01" purity="3.9702352881431580e-01" nType="0">
                <Node pos="l" depth="5" NCoef="0" IVar="-1" Cut="0.0000000000000000e+00" cType="1" res="2.3892818018794060e-02" rms="4.4389149546623230e-01" purity="5.5601054430007935e-01" nType="-99"/>
                <Node pos="r" depth="5" NCoef="0" IVar="-1" Cut="0.0000000000000000e+00" cType="1" res="-6.3659049570560455e-02" rms="3.2016113400459290e-01" purity="1.2659038603305817e-01" nType="-99"/>
              </Node>
              <Node pos="r" depth="4" NCoef="0" IVar="7" Cut="5.0479040145874023e+00" cType="1" res="-1.4456248283386230e-01" rms="2.8621739149093628e-01" purity="1.1266587674617767e-01" nType="0">
                <Node pos="l" depth="5" NCoef="0" IVar="-1" Cut="0.0000000000000000e+00" cType="1" res="-6.2051482498645782e-02" rms="3.2791483402252197e-01" purity="1.5982641279697418e-01" nType="-99"/>
                <Node pos="r" depth="5" NCoef="0" IVar="-1" Cut="0.0000000000000000e+00" cType="1" res="-1.0812319070100784e-01" rms="2.1682772040367126e-01" purity="5.3684279322624207e-02" nType="-99"/>
              </Node>
            </Node>
            <Node pos="r" depth="3" NCoef="0" IVar="2" Cut="1.5223691463470459e+00" cType="1" res="-1.7028476297855377e-01" rms="1.7458719015121460e-01" purity="3.7556737661361694e-02" nType="0">
              <Node pos="l" depth="4" NCoef="0" IVar="-1" Cut="0.0000000000000000e+00" cType="1" res="-1.0078322887420654e-01" rms="2.6764968037605286e-01" purity="9.5022752881050110e-02" nType="-99"/>
              <Node pos="r" depth="4" NCoef="0" IVar="9" Cut="7.2854287922382355e-02" cType="1" res="-1.5861715376377106e-01" rms="1.0993023216724396e-01" purity="1.2496164068579674e-02" nType="0">
                <Node pos="l" depth="5" NCoef="0" IVar="-1" Cut="0.0000000000000000e+00" cType="1" res="-1.1216413974761963e-01" rms="1.2305366247892380e-01" purity="1.5783490613102913e-02" nType="-99"/>
                <Node pos="r" depth="5" NCoef="0" IVar="-1" Cut="0.0000000000000000e+00" cType="1" res="-1.1279402673244476e-01" rms="9.7817271947860718e-02" purity="9.8371217027306557e-03" nType="-99"/>
              </Node>
            </Node>
          </Node>
        </Node>
      </Node>
    </BinaryTree>
    <BinaryTree type="DecisionTree" boostWeight="1.0000000000000000e+00" itree="7">
      <Node pos="s" depth="0" NCoef="0" IVar="2" Cut="1.2409139871597290e+00" cType="1" res="-1.0611148900352418e-04" rms="3.2435199618339539e-01" purity="5.0011914968490601e-01" nType="0">
        <Node pos="l" depth="1" NCoef="0" IVar="3" Cut="2.2766642570495605e+00" cType="1" res="6.6183552145957947e-02" rms="3.3438450098037720e-01" purity="7.6755195856094360e-01" nType="0">
          <Node pos="l" depth="2" NCoef="0" IVar="5" Cut="1.4276621341705322e+00" cType="1" res="8.8569574058055878e-02" rms="3.2509270310401917e-01" purity="8.2571518421173096e-01" nType="0">
            <Node pos="l" depth="3" NCoef="0" IVar="18" Cut="1.6367301940917969e+00" cType="1" res="1.0230035334825516e-01" rms="3.0756223201751709e-01" purity="8.5226953029632568e-01" nType="0">
              <Node pos="l" depth="4" NCoef="0" IVar="2" Cut="-6.5995991230010986e-02" cType="1" res="6.2141511589288712e-02" rms="3.6627423763275146e-01" purity="7.6600831747055054e-01" nType="0">
                <Node pos="l" depth="5" NCoef="0" IVar="-1" Cut="0.0000000000000000e+00" cType="1" res="6.5039396286010742e-02" rms="2.9382622241973877e-01" purity="8.9369457960128784e-01" nType="-99"/>
                <Node pos="r" depth="5" NCoef="0" IVar="-1" Cut="0.0000000000000000e+00" cType="1" res="7.0802104892209172e-04" rms="4.4580531120300293e-01" purity="5.7713854312896729e-01" nType="-99"/>
              </Node>
              <Node pos="r" depth="4" NCoef="0" IVar="1" Cut="1.5136834383010864e+00" cType="1" res="1.2643224000930786e-01" rms="2.6319128274917603e-01" purity="9.0410476922988892e-01" nType="0">
                <Node pos="l" depth="5" NCoef="0" IVar="-1" Cut="0.0000000000000000e+00" cType="1" res="8.9567959308624268e-02" rms="2.4852721393108368e-01" purity="9.1549307107925415e-01" nType="-99"/>
                <Node pos="r" depth="5" NCoef="0" IVar="-1" Cut="0.0000000000000000e+00" cType="1" res="6.1555176973342896e-02" rms="2.8969764709472656e-01" purity="8.7976467609405518e-01" nType="-99"/>
              </Node>
            </Node>
            <Node pos="r" depth="3" NCoef="0" IVar="-1" Cut="0.0000000000000000e+00" cType="1" res="-2.0349960774183273e-02" rms="4.3910616636276245e-01" purity="5.7136595249176025e-01" nType="-99"/>
          </Node>
          <Node pos="r" depth="2" NCoef="0" IVar="-1" Cut="0.0000000000000000e+00" cType="1" res="-7.2939597070217133e-02" rms="3.4420123696327209e-01" purity="1.9274310767650604e-01" nType="-99"/>
        </Node>
        <Node pos="r" depth="1" NCoef="0" IVar="15" Cut="1.8363273143768311e+00" cType="1" res="-9.5177292823791504e-02" rms="2.8352296352386475e-01" purity="1.1657292395830154e-01" nType="0">
          <Node pos="l" depth="2" NCoef="0" IVar="2" Cut="1.9126700162887573e+00" cType="1" res="-1.1424344033002853e-01" rms="2.5162649154663086e-01" purity="8.4261938929557800e-02" nType="0">
            <Node pos="l" depth="3" NCoef="0" IVar="8" Cut="2.2954091429710388e-02" cType="1" res="-9.7701534628868103e-02" rms="3.0832660198211670e-01" purity="1.3360205292701721e-01" nType="0">
              <Node pos="l" depth="4" NCoef="0" IVar="-1" Cut="0.0000000000000000e+00" cType="1" res="-3.3347208052873611e-02" rms="3.7853151559829712e-01" purity="2.2034510970115662e-01" nType="-99"/>
              <Node pos="r" depth="4" NCoef="0" IVar="-1" Cut="0.0000000000000000e+00" cType="1" res="-8.0732673406600952e-02" rms="2.4415144324302673e-01" purity="7.2462566196918488e-02" nType="-99"/>
            </Node>
            <Node pos="r" depth="3" NCoef="0" IVar="1" Cut="1.2490714788436890e+00" cType="1" res="-1.3156211376190186e-01" rms="1.7172412574291229e-01" purity="3.2604906708002090e-02" nType="0">
              <Node pos="l" depth="4" NCoef="0" IVar="-1" Cut="0.0000000000000000e+00" cType="1" res="-9.5084443688392639e-02" rms="1.7364795506000519e-01" purity="3.3780466765165329e-02" nType="-99"/>
              <Node pos="r" depth="4" NCoef="0" IVar="-1" Cut="0.0000000000000000e+00" cType="1" res="-1.0133976489305496e-01" rms="1.6790589690208435e-01" purity="3.0611338093876839e-02" nType="-99"/>
            </Node>
          </Node>
          <Node pos="r" depth="2" NCoef="0" IVar="-1" Cut="0.0000000000000000e+00" cType="1" res="-2.0277285948395729e-02" rms="3.5902994871139526e-01" purity="2.1723453700542450e-01" nType="-99"/>
        </Node>
      </Node>
    </BinaryTree>
    <BinaryTree type="DecisionTree" boostWeight="1.0000000000000000e+00" itree="8">
      <Node pos="s" depth="0" NCoef="0" IVar="2" Cut="3.1712234020233154e-01" cType="1" res="-1.3171820319257677e-04" rms="3.1795144081115723e-01" purity="5.0014138221740723e-01" nType="0">
        <Node pos="l" depth="1" NCoef="0" IVar="22" Cut="1.7646735068410635e-04" cType="1" res="7.9298757016658783e-02" rms="2.8548890352249146e-01" purity="8.6964881420135498e-01" nType="0">
          <Node pos="l" depth="2" NCoef="0" IVar="18" Cut="1.2574888467788696e+00" cType="1" res="9.4762638211250305e-02" rms="2.6213774085044861e-01" purity="9.1694968938827515e-01" nType="0">
            <Node pos="l" depth="3" NCoef="0" IVar="-1" Cut="0.0000000000000000e+00" cType="1" res="3.9225939661264420e-02" rms="3.3178803324699402e-01" purity="8.5801833868026733e-01" nType="-99"/>
            <Node pos="r" depth="3" NCoef="0" IVar="17" Cut="1.3497102260589600e-01" cType="1" res="1.0571730881929398e-01" rms="2.3440471291542053e-01" purity="9.3586361408233643e-01" nType="0">
              <Node pos="l" depth="4" NCoef="0" IVar="18" Cut="2.5488023757934570e+00" cType="1" res="1.1342196911573410e-01" rms="2.2273571789264679e-01" purity="9.4444406032562256e-01" nType="0">
                <Node pos="l" depth="5" NCoef="0" IVar="-1" Cut="0.0000000000000000e+00" cType="1" res="6.7507177591323853e-02" rms="2.6685997843742371e-01" purity="9.1607350111007690e-01" nType="-99"/>
                <Node pos="r" depth="5" NCoef="0" IVar="-1" Cut="0.0000000000000000e+00" cType="1" res="1.0019966959953308e-01" rms="1.7616428434848785e-01" purity="9.6811425685882568e-01" nType="-99"/>
              </Node>
              <Node pos="r" depth="4" NCoef="0" IVar="-1" Cut="0.0000000000000000e+00" cType="1" res="5.3949188441038132e-02" rms="2.7630242705345154e-01" purity="8.9930534362792969e-01" nType="-99"/>
            </Node>
          </Node>
          <Node pos="r" depth="2" NCoef="0" IVar="-1" Cut="0.0000000000000000e+00" cType="1" res="-5.9071732684969902e-03" rms="3.8352552056312561e-01" purity="5.9117978811264038e-01" nType="-99"/>
        </Node>
        <Node pos="r" depth="1" NCoef="0" IVar="7" Cut="1.0179641246795654e+00" cType="1" res="-5.4976776242256165e-02" rms="3.2749760150909424e-01" purity="2.4500431120395660e-01" nType="0">
          <Node pos="l" depth="2" NCoef="0" IVar="22" Cut="-8.0836294218897820e-03" cType="1" res="3.0837751924991608e-02" rms="3.9100146293640137e-01" purity="4.8076611757278442e-01" nType="0">
            <Node pos="l" depth="3" NCoef="0" IVar="-1" Cut="0.0000000000000000e+00" cType="1" res="4.6393759548664093e-02" rms="4.0679791569709778e-01" purity="6.4260149002075195e-01" nType="-99"/>
            <Node pos="r" depth="3" NCoef="0" IVar="-1" Cut="0.0000000000000000e+00" cType="1" res="-3.2212715595960617e-02" rms="3.4946972131729126e-01" purity="2.6099580526351929e-01" nType="-99"/>
          </Node>
          <Node pos="r" depth="2" NCoef="0" IVar="22" Cut="1.9708175386767834e-04" cType="1" res="-8.4416911005973816e-02" rms="2.9699879884719849e-01" purity="1.6412222385406494e-01" nType="0">
            <Node pos="l" depth="3" NCoef="0" IVar="5" Cut="1.3520601987838745e+00" cType="1" res="-5.7370722293853760e-02" rms="3.5981070995330811e-01" purity="2.5382307171821594e-01" nType="0">
              <Node pos="l" depth="4" NCoef="0" IVar="18" Cut="2.3756537437438965e+00" cType="1" res="-2.1696910262107849e-02" rms="3.8986662030220032e-01" purity="3.2694208621978760e-01" nType="0">
                <Node pos="l" depth="5" NCoef="0" IVar="-1" Cut="0.0000000000000000e+00" cType="1" res="-3.7248931825160980e-02" rms="3.6551523208618164e-01" purity="2.3858205974102020e-01" nType="-99"/>
                <Node pos="r" depth="5" NCoef="0" IVar="-1" Cut="0.0000000000000000e+00" cType="1" res="3.3898733556270599e-02" rms="4.2194983363151550e-01" purity="5.0774377584457397e-01" nType="-99"/>
              </Node>
              <Node pos="r" depth="4" NCoef="0" IVar="-1" Cut="0.0000000000000000e+00" cType="1" res="-7.8557498753070831e-02" rms="2.8130492568016052e-01" purity="1.1360129714012146e-01" nType="-99"/>
            </Node>
            <Node pos="r" depth="3" NCoef="0" IVar="2" Cut="1.5733965635299683e+00" cType="1" res="-1.2674655020236969e-01" rms="1.4388640224933624e-01" purity="2.3732628673315048e-02" nType="0">
              <Node pos="l" depth="4" NCoef="0" IVar="-1" Cut="0.0000000000000000e+00" cType="1" res="-1.0072540491819382e-01" rms="2.1460622549057007e-01" purity="5.6857183575630188e-02" nType="-99"/>
              <Node pos="r" depth="4" NCoef="0" IVar="18" Cut="1.3979251384735107e+00" cType="1" res="-1.1047237366437912e-01" rms="8.7579406797885895e-02" purity="7.7681047841906548e-03" nType="0">
                <Node pos="l" depth="5" NCoef="0" IVar="-1" Cut="0.0000000000000000e+00" cType="1" res="-1.0702744871377945e-01" rms="7.4071764945983887e-02" purity="5.5598849430680275e-03" nType="-99"/>
                <Node pos="r" depth="5" NCoef="0" IVar="-1" Cut="0.0000000000000000e+00" cType="1" res="-1.0548344999551773e-01" rms="9.9658273160457611e-02" purity="1.0103571228682995e-02" nType="-99"/>
              </Node>
            </Node>
          </Node>
        </Node>
      </Node>
    </BinaryTree>
    <BinaryTree type="DecisionTree" boostWeight="1.0000000000000000e+00" itree="9">
      <Node pos="s" depth="0" NCoef="0" IVar="2" Cut="1.3098535537719727e+00" cType="1" res="-4.3639121577143669e-04" rms="3.1292778253555298e-01" purity="4.9967348575592041e-01" nType="0">
        <Node pos="l" depth="1" NCoef="0" IVar="22" Cut="3.3263053745031357e-02" cType="1" res="4.4211193919181824e-02" rms="3.2879769802093506e-01" purity="7.5438606739044189e-01" nType="0">
          <Node pos="l" depth="2" NCoef="0" IVar="7" Cut="4.0119762420654297e+00" cType="1" res="6.2077600508928299e-02" rms="3.2262942194938660e-01" purity="8.0756294727325439e-01" nType="0">
            <Node pos="l" depth="3" NCoef="0" IVar="1" Cut="1.6224941015243530e+00" cType="1" res="7.7790215611457825e-02" rms="3.0554065108299255e-01" purity="8.5090827941894531e-01" nType="0">
              <Node pos="l" depth="4" NCoef="0" IVar="17" Cut="5.0390612334012985e-02" cType="1" res="9.5550015568733215e-02" rms="2.9074084758758545e-01" purity="8.7075692415237427e-01" nType="0">
                <Node pos="l" depth="5" NCoef="0" IVar="-1" Cut="0.0000000000000000e+00" cType="1" res="3.1843740493059158e-02" rms="3.6492505669593811e-01" purity="7.6636922359466553e-01" nType="-99"/>
                <Node pos="r" depth="5" NCoef="0" IVar="-1" Cut="0.0000000000000000e+00" cType="1" res="7.5064219534397125e-02" rms="2.6654008030891418e-01" purity="8.9851272106170654e-01" nType="-99"/>
              </Node>
              <Node pos="r" depth="4" NCoef="0" IVar="7" Cut="1.0059880018234253e+00" cType="1" res="3.2281298190355301e-02" rms="3.3628734946250916e-01" purity="8.0004650354385376e-01" nType="0">
                <Node pos="l" depth="5" NCoef="0" IVar="-1" Cut="0.0000000000000000e+00" cType="1" res="5.1518514752388000e-02" rms="2.8669688105583191e-01" purity="8.8353687524795532e-01" nType="-99"/>
                <Node pos="r" depth="5" NCoef="0" IVar="-1" Cut="0.0000000000000000e+00" cType="1" res="-2.0518189296126366e-02" rms="3.9815530180931091e-01" purity="6.5767598152160645e-01" nType="-99"/>
              </Node>
            </Node>
            <Node pos="r" depth="3" NCoef="0" IVar="-1" Cut="0.0000000000000000e+00" cType="1" res="-3.7766244262456894e-02" rms="4.2164412140846252e-01" purity="4.2243894934654236e-01" nType="-99"/>
          </Node>
          <Node pos="r" depth="2" NCoef="0" IVar="-1" Cut="0.0000000000000000e+00" cType="1" res="-6.9551892578601837e-02" rms="3.3652436733245850e-01" purity="2.2404646873474121e-01" nType="-99"/>
        </Node>
        <Node pos="r" depth="1" NCoef="0" IVar="2" Cut="1.8171190023422241e+00" cType="1" res="-6.9242082536220551e-02" rms="2.7280572056770325e-01" purity="1.0713988542556763e-01" nType="0">
          <Node pos="l" depth="2" NCoef="0" IVar="18" Cut="1.9966775178909302e+00" cType="1" res="-3.6951858550310135e-02" rms="3.4305396676063538e-01" purity="1.8664564192295074e-01" nType="0">
            <Node pos="l" depth="3" NCoef="0" IVar="-1" Cut="0.0000000000000000e+00" cType="1" res="-5.0348460674285889e-02" rms="3.0185130238533020e-01" purity="1.2353698164224625e-01" nType="-99"/>
            <Node pos="r" depth="3" NCoef="0" IVar="-1" Cut="0.0000000000000000e+00" cType="1" res="1.6801260411739349e-02" rms="3.9838561415672302e-01" purity="3.0070665478706360e-01" nType="-99"/>
          </Node>
          <Node pos="r" depth="2" NCoef="0" IVar="2" Cut="2.0506467819213867e+00" cType="1" res="-9.1433659195899963e-02" rms="2.0852147042751312e-01" purity="5.2499242126941681e-02" nType="0">
            <Node pos="l" depth="3" NCoef="0" IVar="-1" Cut="0.0000000000000000e+00" cType="1" res="-6.2743008136749268e-02" rms="2.4151360988616943e-01" purity="7.3483482003211975e-02" nType="-99"/>
            <Node pos="r" depth="3" NCoef="0" IVar="11" Cut="9.5808386802673340e-02" cType="1" res="-1.0218235850334167e-01" rms="1.7885048687458038e-01" purity="3.6634370684623718e-02" nType="0">
              <Node pos="l" depth="4" NCoef="0" IVar="-1" Cut="0.0000000000000000e+00" cType="1" res="-8.6001351475715637e-02" rms="2.0516496896743774e-01" purity="4.9187447875738144e-02" nType="-99"/>
              <Node pos="r" depth="4" NCoef="0" IVar="-1" Cut="0.0000000000000000e+00" cType="1" res="-9.0441562235355377e-02" rms="1.5670526027679443e-01" purity="2.7544869109988213e-02" nType="-99"/>
            </Node>
          </Node>
        </Node>
      </Node>
    </BinaryTree>
    <BinaryTree type="DecisionTree" boostWeight="1.0000000000000000e+00" itree="10">
      <Node pos="s" depth="0" NCoef="0" IVar="2" Cut="-1.2409187853336334e-01" cType="1" res="-2.5205081328749657e-04" rms="3.0843052268028259e-01" purity="4.9987274408340454e-01" nType="0">
        <Node pos="l" depth="1" NCoef="0" IVar="8" Cut="3.6926146596670151e-02" cType="1" res="6.6193446516990662e-02" rms="2.6507008075714111e-01" purity="8.8847535848617554e-01" nType="0">
          <Node pos="l" depth="2" NCoef="0" IVar="2" Cut="-7.4124735593795776e-01" cType="1" res="7.9974919557571411e-02" rms="2.2705951333045959e-01" purity="9.3162369728088379e-01" nType="0">
            <Node pos="l" depth="3" NCoef="0" IVar="1" Cut="1.6929913759231567e+00" cType="1" res="8.6819075047969818e-02" rms="2.1256707608699799e-01" purity="9.4172650575637817e-01" nType="0">
              <Node pos="l" depth="4" NCoef="0" IVar="0" Cut="3.5087983608245850e+00" cType="1" res="9.2144325375556946e-02" rms="2.0172528922557831e-01" purity="9.4743770360946655e-01" nType="0">
                <Node pos="l" depth="5" NCoef="0" IVar="-1" Cut="0.0000000000000000e+00" cType="1" res="7.5932294130325317e-02" rms="2.0691046118736267e-01" purity="9.4753605127334595e-01" nType="-99"/>
                <Node pos="r" depth="5" NCoef="0" IVar="-1" Cut="0.0000000000000000e+00" cType="1" res="8.4517754614353180e-02" rms="1.9860060513019562e-01" purity="9.4738376140594482e-01" nType="-99"/>
              </Node>
              <Node pos="r" depth="4" NCoef="0" IVar="-1" Cut="0.0000000000000000e+00" cType="1" res="6.2163528054952621e-02" rms="2.3929671943187714e-01" purity="9.2599612474441528e-01" nType="-99"/>
            </Node>
            <Node pos="r" depth="3" NCoef="0" IVar="-1" Cut="0.0000000000000000e+00" cType="1" res="5.0289619714021683e-02" rms="2.6314559578895569e-01" purity="9.0275514125823975e-01" nType="-99"/>
          </Node>
          <Node pos="r" depth="2" NCoef="0" IVar="-1" Cut="0.0000000000000000e+00" cType="1" res="1.5610044822096825e-02" rms="3.5159114003181458e-01" purity="7.6023429632186890e-01" nType="-99"/>
        </Node>
        <Node pos="r" depth="1" NCoef="0" IVar="8" Cut="2.5948103517293930e-02" cType="1" res="-3.5649463534355164e-02" rms="3.2368487119674683e-01" purity="2.9285296797752380e-01" nType="0">
          <Node pos="l" depth="2" NCoef="0" IVar="22" Cut="2.2564247774425894e-04" cType="1" res="8.3245309069752693e-03" rms="3.6006802320480347e-01" purity="4.4602519273757935e-01" nType="0">
            <Node pos="l" depth="3" NCoef="0" IVar="15" Cut="1.6566866636276245e+00" cType="1" res="4.3611615896224976e-02" rms="3.8484019041061401e-01" purity="5.6464207172393799e-01" nType="0">
              <Node pos="l" depth="4" NCoef="0" IVar="2" Cut="1.5324424505233765e+00" cType="1" res="4.3944845674559474e-04" rms="3.9316162467002869e-01" purity="4.5331120491027832e-01" nType="0">
                <Node pos="l" depth="5" NCoef="0" IVar="-1" Cut="0.0000000000000000e+00" cType="1" res="1.5196297317743301e-02" rms="4.2270827293395996e-01" purity="6.5721720457077026e-01" nType="-99"/>
                <Node pos="r" depth="5" NCoef="0" IVar="-1" Cut="0.0000000000000000e+00" cType="1" res="-2.9189918190240860e-02" rms="3.3980751037597656e-01" purity="1.5029558539390564e-01" nType="-99"/>
              </Node>
              <Node pos="r" depth="4" NCoef="0" IVar="-1" Cut="0.0000000000000000e+00" cType="1" res="6.3947722315788269e-02" rms="3.6169517040252686e-01" purity="7.3623323440551758e-01" nType="-99"/>
            </Node>
            <Node pos="r" depth="3" NCoef="0" IVar="-1" Cut="0.0000000000000000e+00" cType="1" res="-6.1429668217897415e-02" rms="2.6319378614425659e-01" purity="1.3424792885780334e-01" nType="-99"/>
          </Node>
          <Node pos="r" depth="2" NCoef="0" IVar="5" Cut="1.7075018882751465e+00" cType="1" res="-7.5221203267574310e-02" rms="2.8121030330657959e-01" purity="1.5501485764980316e-01" nType="0">
            <Node pos="l" depth="3" NCoef="0" IVar="3" Cut="1.8592865467071533e+00" cType="1" res="-6.4135700464248657e-02" rms="2.8612184524536133e-01" purity="1.7051875591278076e-01" nType="0">
              <Node pos="l" depth="4" NCoef="0" IVar="18" Cut="2.0578696727752686e+00" cType="1" res="-3.6046825349330902e-02" rms="3.5958454012870789e-01" purity="2.9008588194847107e-01" nType="0">
                <Node pos="l" depth="5" NCoef="0" IVar="-1" Cut="0.0000000000000000e+00" cType="1" res="-4.4227078557014465e-02" rms="3.3296820521354675e-01" purity="2.0140667259693146e-01" nType="-99"/>
                <Node pos="r" depth="5" NCoef="0" IVar="-1" Cut="0.0000000000000000e+00" cType="1" res="1.0892259888350964e-02" rms="3.9804840087890625e-01" purity="4.5297995209693909e-01" nType="-99"/>
              </Node>
              <Node pos="r" depth="4" NCoef="0" IVar="2" Cut="1.7261897325515747e+00" cType="1" res="-9.7791828215122223e-02" rms="1.5149432420730591e-01" purity="2.7253288775682449e-02" nType="0">
                <Node pos="l" depth="5" NCoef="0" IVar="-1" Cut="0.0000000000000000e+00" cType="1" res="-8.9636802673339844e-02" rms="2.0778876543045044e-01" purity="5.3972661495208740e-02" nType="-99"/>
                <Node pos="r" depth="5" NCoef="0" IVar="-1" Cut="0.0000000000000000e+00" cType="1" res="-1.0137998312711716e-01" rms="8.5563950240612030e-02" purity="7.3981280438601971e-03" nType="-99"/>
              </Node>
            </Node>
            <Node pos="r" depth="3" NCoef="0" IVar="-1" Cut="0.0000000000000000e+00" cType="1" res="-9.5337338745594025e-02" rms="2.4697907269001007e-01" purity="7.5772076845169067e-02" nType="-99"/>
          </Node>
        </Node>
      </Node>
    </BinaryTree>
    <BinaryTree type="DecisionTree" boostWeight="1.0000000000000000e+00" itree="11">
      <Node pos="s" depth="0" NCoef="0" IVar="7" Cut="2.0359282493591309e+00" cType="1" res="-5.2294813940534368e-05" rms="3.0467024445533752e-01" purity="5.0013703107833862e-01" nType="0">
        <Node pos="l" depth="1" NCoef="0" IVar="22" Cut="5.8044128119945526e-02" cType="1" res="3.6541525274515152e-02" rms="3.0640524625778198e-01" purity="6.8680626153945923e-01" nType="0">
          <Node pos="l" depth="2" NCoef="0" IVar="2" Cut="1.8200072050094604e+00" cType="1" res="5.1493920385837555e-02" rms="3.0573636293411255e-01" purity="7.5234586000442505e-01" nType="0">
            <Node pos="l" depth="3" NCoef="0" IVar="1" Cut="1.5497136116027832e+00" cType="1" res="6.3935376703739166e-02" rms="3.0056703090667725e-01" purity="8.2966798543930054e-01" nType="0">
              <Node pos="l" depth="4" NCoef="0" IVar="17" Cut="4.8395633697509766e-02" cType="1" res="8.4362149238586426e-02" rms="2.8278720378875732e-01" purity="8.6167871952056885e-01" nType="0">
                <Node pos="l" depth="5" NCoef="0" IVar="-1" Cut="0.0000000000000000e+00" cType="1" res="3.1301725655794144e-02" rms="3.5457769036293030e-01" purity="7.3433691263198853e-01" nType="-99"/>
                <Node pos="r" depth="5" NCoef="0" IVar="-1" Cut="0.0000000000000000e+00" cType="1" res="7.4469022452831268e-02" rms="2.6202276349067688e-01" purity="8.9220297336578369e-01" nType="-99"/>
              </Node>
              <Node pos="r" depth="4" NCoef="0" IVar="2" Cut="-2.6753954589366913e-02" cType="1" res="2.5425378233194351e-02" rms="3.2806220650672913e-01" purity="7.6931899785995483e-01" nType="0">
                <Node pos="l" depth="5" NCoef="0" IVar="-1" Cut="0.0000000000000000e+00" cType="1" res="5.3366187959909439e-02" rms="2.4488271772861481e-01" purity="9.2802667617797852e-01" nType="-99"/>
                <Node pos="r" depth="5" NCoef="0" IVar="-1" Cut="0.0000000000000000e+00" cType="1" res="-9.6803447231650352e-03" rms="4.1173148155212402e-01" purity="5.5213367938995361e-01" nType="-99"/>
              </Node>
            </Node>
            <Node pos="r" depth="3" NCoef="0" IVar="-1" Cut="0.0000000000000000e+00" cType="1" res="-3.2301004976034164e-02" rms="3.2765462994575500e-01" purity="1.4061377942562103e-01" nType="-99"/>
          </Node>
          <Node pos="r" depth="2" NCoef="0" IVar="-1" Cut="0.0000000000000000e+00" cType="1" res="-5.8853629976511002e-02" rms="2.8442609310150146e-01" purity="1.5932619571685791e-01" nType="-99"/>
        </Node>
        <Node pos="r" depth="1" NCoef="0" IVar="2" Cut="-5.5151766538619995e-01" cType="1" res="-4.4945769011974335e-02" rms="2.9642036557197571e-01" purity="2.7113020420074463e-01" nType="0">
          <Node pos="l" depth="2" NCoef="0" IVar="-1" Cut="0.0000000000000000e+00" cType="1" res="2.1124718710780144e-02" rms="3.4684935212135315e-01" purity="7.7061635255813599e-01" nType="-99"/>
          <Node pos="r" depth="2" NCoef="0" IVar="7" Cut="4.0239520072937012e+00" cType="1" res="-6.0516737401485443e-02" rms="2.8283134102821350e-01" purity="1.7258445918560028e-01" nType="0">
            <Node pos="l" depth="3" NCoef="0" IVar="22" Cut="1.9863646593876183e-04" cType="1" res="-3.8998432457447052e-02" rms="3.2129493355751038e-01" purity="2.5328195095062256e-01" nType="0">
              <Node pos="l" depth="4" NCoef="0" IVar="18" Cut="1.9366526603698730e+00" cType="1" res="-1.5443271957337856e-02" rms="3.7615409493446350e-01" purity="3.6931848526000977e-01" nType="0">
                <Node pos="l" depth="5" NCoef="0" IVar="-1" Cut="0.0000000000000000e+00" cType="1" res="-3.3743232488632202e-02" rms="3.5483893752098083e-01" purity="2.5468277931213379e-01" nType="-99"/>
                <Node pos="r" depth="5" NCoef="0" IVar="-1" Cut="0.0000000000000000e+00" cType="1" res="1.9202297553420067e-02" rms="3.9895051717758179e-01" purity="5.2914994955062866e-01" nType="-99"/>
              </Node>
              <Node pos="r" depth="4" NCoef="0" IVar="-1" Cut="0.0000000000000000e+00" cType="1" res="-8.8137567043304443e-02" rms="1.6749152541160583e-01" purity="3.4448705613613129e-02" nType="-99"/>
            </Node>
            <Node pos="r" depth="3" NCoef="0" IVar="7" Cut="6.0479040145874023e+00" cType="1" res="-8.4414497017860413e-02" rms="2.3043839633464813e-01" purity="8.2963533699512482e-02" nType="0">
              <Node pos="l" depth="4" NCoef="0" IVar="-1" Cut="0.0000000000000000e+00" cType="1" res="-5.9834726154804230e-02" rms="2.5919562578201294e-01" purity="1.1386008560657501e-01" nType="-99"/>
              <Node pos="r" depth="4" NCoef="0" IVar="-1" Cut="0.0000000000000000e+00" cType="1" res="-9.7661562263965607e-02" rms="1.7920278012752533e-01" purity="3.8066066801548004e-02" nType="-99"/>
            </Node>
          </Node>
        </Node>
      </Node>
    </BinaryTree>
    <BinaryTree type="DecisionTree" boostWeight="1.0000000000000000e+00" itree="12">
      <Node pos="s" depth="0" NCoef="0" IVar="3" Cut="2.1008510589599609e+00" cType="1" res="-3.7741413689218462e-04" rms="3.0142730474472046e-01" purity="4.9999651312828064e-01" nType="0">
        <Node pos="l" depth="1" NCoef="0" IVar="2" Cut="1.6821272373199463e+00" cType="1" res="1.6815196722745895e-02" rms="3.1807461380958557e-01" purity="6.0315871238708496e-01" nType="0">
          <Node pos="l" depth="2" NCoef="0" IVar="18" Cut="1.7165873050689697e+00" cType="1" res="3.5099893808364868e-02" rms="3.2800513505935669e-01" purity="7.5057578086853027e-01" nType="0">
            <Node pos="l" depth="3" NCoef="0" IVar="5" Cut="6.4044153690338135e-01" cType="1" res="3.2520759850740433e-03" rms="3.6645033955574036e-01" purity="6.3394176959991455e-01" nType="0">
              <Node pos="l" depth="4" NCoef="0" IVar="7" Cut="2.3952096700668335e-02" cType="1" res="2.3799326270818710e-02" rms="3.5694539546966553e-01" purity="7.0127516984939575e-01" nType="0">
                <Node pos="l" depth="5" NCoef="0" IVar="-1" Cut="0.0000000000000000e+00" cType="1" res="5.1229361444711685e-02" rms="3.1584933400154114e-01" purity="8.1307238340377808e-01" nType="-99"/>
                <Node pos="r" depth="5" NCoef="0" IVar="-1" Cut="0.0000000000000000e+00" cType="1" res="3.9702127687633038e-03" rms="3.6812424659729004e-01" purity="6.6354006528854370e-01" nType="-99"/>
              </Node>
              <Node pos="r" depth="4" NCoef="0" IVar="-1" Cut="0.0000000000000000e+00" cType="1" res="-3.6486301571130753e-02" rms="3.8794213533401489e-01" purity="4.2053407430648804e-01" nType="-99"/>
            </Node>
            <Node pos="r" depth="3" NCoef="0" IVar="17" Cut="1.5457163751125336e-01" cType="1" res="5.8298092335462570e-02" rms="2.9472532868385315e-01" purity="8.3553284406661987e-01" nType="0">
              <Node pos="l" depth="4" NCoef="0" IVar="15" Cut="2.5548968315124512e+00" cType="1" res="7.0791013538837433e-02" rms="2.8374978899955750e-01" purity="8.5078316926956177e-01" nType="0">
                <Node pos="l" depth="5" NCoef="0" IVar="-1" Cut="0.0000000000000000e+00" cType="1" res="3.7295550107955933e-02" rms="3.1425553560256958e-01" purity="7.9819017648696899e-01" nType="-99"/>
                <Node pos="r" depth="5" NCoef="0" IVar="-1" Cut="0.0000000000000000e+00" cType="1" res="7.9136475920677185e-02" rms="2.4441130459308624e-01" purity="9.0780514478683472e-01" nType="-99"/>
              </Node>
              <Node pos="r" depth="4" NCoef="0" IVar="-1" Cut="0.0000000000000000e+00" cType="1" res="-1.2993576936423779e-02" rms="3.4441527724266052e-01" purity="7.4325484037399292e-01" nType="-99"/>
            </Node>
          </Node>
          <Node pos="r" depth="2" NCoef="0" IVar="2" Cut="2.0004057884216309e+00" cType="1" res="-4.6144746243953705e-02" rms="2.7196392416954041e-01" purity="9.5555573701858521e-02" nType="0">
            <Node pos="l" depth="3" NCoef="0" IVar="-1" Cut="0.0000000000000000e+00" cType="1" res="-1.9119283184409142e-02" rms="3.1527355313301086e-01" purity="1.3619050383567810e-01" nType="-99"/>
            <Node pos="r" depth="3" NCoef="0" IVar="-1" Cut="0.0000000000000000e+00" cType="1" res="-6.2282424420118332e-02" rms="2.2548916935920715e-01" purity="5.9888344258069992e-02" nType="-99"/>
          </Node>
        </Node>
        <Node pos="r" depth="1" NCoef="0" IVar="22" Cut="8.4634060040116310e-03" cType="1" res="-7.1558110415935516e-02" rms="2.0462158322334290e-01" purity="7.2885237634181976e-02" nType="0">
          <Node pos="l" depth="2" NCoef="0" IVar="-1" Cut="0.0000000000000000e+00" cType="1" res="-3.0253615230321884e-02" rms="3.0075553059577942e-01" purity="1.8840128183364868e-01" nType="-99"/>
          <Node pos="r" depth="2" NCoef="0" IVar="2" Cut="1.6407639980316162e+00" cType="1" res="-8.5153140127658844e-02" rms="1.3637843728065491e-01" purity="1.8935291096568108e-02" nType="0">
            <Node pos="l" depth="3" NCoef="0" IVar="-1" Cut="0.0000000000000000e+00" cType="1" res="-9.5325060188770294e-02" rms="1.9456461071968079e-01" purity="4.0885351598262787e-02" nType="-99"/>
            <Node pos="r" depth="3" NCoef="0" IVar="-1" Cut="0.0000000000000000e+00" cType="1" res="-1.0237067937850952e-01" rms="5.2061129361391068e-02" purity="2.6070745661854744e-03" nType="-99"/>
          </Node>
        </Node>
      </Node>
    </BinaryTree>
    <BinaryTree type="DecisionTree" boostWeight="1.0000000000000000e+00" itree="13">
      <Node pos="s" depth="0" NCoef="0" IVar="2" Cut="-2.3439504206180573e-01" cType="1" res="-3.8513631443493068e-04" rms="2.9905578494071960e-01" purity="4.9991312623023987e-01" nType="0">
        <Node pos="l" depth="1" NCoef="0" IVar="8" Cut="3.8922157138586044e-02" cType="1" res="4.3440230190753937e-02" rms="2.5844457745552063e-01" purity="8.9149135351181030e-01" nType="0">
          <Node pos="l" depth="2" NCoef="0" IVar="1" Cut="1.8407609462738037e+00" cType="1" res="5.2548356354236603e-02" rms="2.2287236154079437e-01" purity="9.3310248851776123e-01" nType="0">
            <Node pos="l" depth="3" NCoef="0" IVar="16" Cut="-9.9600797891616821e-01" cType="1" res="5.7099130004644394e-02" rms="2.1417042613029480e-01" purity="9.3786448240280151e-01" nType="0">
              <Node pos="l" depth="4" NCoef="0" IVar="-1" Cut="0.0000000000000000e+00" cType="1" res="4.6728368848562241e-02" rms="2.4124304950237274e-01" purity="9.1653794050216675e-01" nType="-99"/>
              <Node pos="r" depth="4" NCoef="0" IVar="0" Cut="3.8268883228302002e+00" cType="1" res="6.2819182872772217e-02" rms="1.9933652877807617e-01" purity="9.4830250740051270e-01" nType="0">
                <Node pos="l" depth="5" NCoef="0" IVar="-1" Cut="0.0000000000000000e+00" cType="1" res="6.5808892250061035e-02" rms="2.0131309330463409e-01" purity="9.4930046796798706e-01" nType="-99"/>
                <Node pos="r" depth="5" NCoef="0" IVar="-1" Cut="0.0000000000000000e+00" cType="1" res="7.2884768247604370e-02" rms="1.9599464535713196e-01" purity="9.4673532247543335e-01" nType="-99"/>
              </Node>
            </Node>
            <Node pos="r" depth="3" NCoef="0" IVar="-1" Cut="0.0000000000000000e+00" cType="1" res="3.6103673279285431e-02" rms="2.5332611799240112e-01" purity="9.1444426774978638e-01" nType="-99"/>
          </Node>
          <Node pos="r" depth="2" NCoef="0" IVar="-1" Cut="0.0000000000000000e+00" cType="1" res="1.0310271754860878e-02" rms="3.4413465857505798e-01" purity="7.6347196102142334e-01" nType="-99"/>
        </Node>
        <Node pos="r" depth="1" NCoef="0" IVar="6" Cut="1.0000000000000000e+00" cType="1" res="-1.8330358434468508e-03" rms="8.1990040838718414e-02" purity="3.0479255318641663e-01" nType="0">
          <Node pos="l" depth="2" NCoef="0" IVar="17" Cut="6.2797129154205322e-02" cType="1" res="4.7257192432880402e-02" rms="3.6841598153114319e-01" purity="6.1046534776687622e-01" nType="0">
            <Node pos="l" depth="3" NCoef="0" IVar="-1" Cut="0.0000000000000000e+00" cType="1" res="4.5405733399093151e-03" rms="3.8876396417617798e-01" purity="4.7202384471893311e-01" nType="-99"/>
            <Node pos="r" depth="3" NCoef="0" IVar="-1" Cut="0.0000000000000000e+00" cType="1" res="5.4278798401355743e-02" rms="3.4434473514556885e-01" purity="7.3944497108459473e-01" nType="-99"/>
          </Node>
          <Node pos="r" depth="2" NCoef="0" IVar="16" Cut="-9.9600797891616821e-01" cType="1" res="-3.5479653626680374e-02" rms="3.0204483866691589e-01" purity="2.4647089838981628e-01" nType="0">
            <Node pos="l" depth="3" NCoef="0" IVar="1" Cut="1.6162074804306030e+00" cType="1" res="-6.9758959114551544e-02" rms="2.7460896968841553e-01" purity="1.5322104096412659e-01" nType="0">
              <Node pos="l" depth="4" NCoef="0" IVar="12" Cut="6.4870262145996094e-01" cType="1" res="-5.9018988162279129e-02" rms="2.7211594581604004e-01" purity="1.5589451789855957e-01" nType="0">
                <Node pos="l" depth="5" NCoef="0" IVar="-1" Cut="0.0000000000000000e+00" cType="1" res="-4.5254383236169815e-02" rms="2.5064292550086975e-01" purity="1.4067962765693665e-01" nType="-99"/>
                <Node pos="r" depth="5" NCoef="0" IVar="-1" Cut="0.0000000000000000e+00" cType="1" res="-5.8233115822076797e-02" rms="2.9337471723556519e-01" purity="1.7264495790004730e-01" nType="-99"/>
              </Node>
              <Node pos="r" depth="4" NCoef="0" IVar="-1" Cut="0.0000000000000000e+00" cType="1" res="-7.9549439251422882e-02" rms="2.7958548069000244e-01" purity="1.4493969082832336e-01" nType="-99"/>
            </Node>
            <Node pos="r" depth="3" NCoef="0" IVar="3" Cut="1.5100252628326416e+00" cType="1" res="-1.2778870761394501e-02" rms="3.1688281893730164e-01" purity="3.0822375416755676e-01" nType="0">
              <Node pos="l" depth="4" NCoef="0" IVar="8" Cut="2.9938755556941032e-02" cType="1" res="1.0907998308539391e-02" rms="3.6101552844047546e-01" purity="4.4015213847160339e-01" nType="0">
                <Node pos="l" depth="5" NCoef="0" IVar="-1" Cut="0.0000000000000000e+00" cType="1" res="2.5265138596296310e-02" rms="3.7072312831878662e-01" purity="5.6275314092636108e-01" nType="-99"/>
                <Node pos="r" depth="5" NCoef="0" IVar="-1" Cut="0.0000000000000000e+00" cType="1" res="-2.1571747958660126e-02" rms="3.4252154827117920e-01" purity="2.6684993505477905e-01" nType="-99"/>
              </Node>
              <Node pos="r" depth="4" NCoef="0" IVar="11" Cut="2.0658682286739349e-01" cType="1" res="-5.6721217930316925e-02" rms="2.0479732751846313e-01" purity="6.3478693366050720e-02" nType="0">
                <Node pos="l" depth="5" NCoef="0" IVar="-1" Cut="0.0000000000000000e+00" cType="1" res="-8.5506930947303772e-02" rms="1.6856117546558380e-01" purity="4.0003623813390732e-02" nType="-99"/>
                <Node pos="r" depth="5" NCoef="0" IVar="-1" Cut="0.0000000000000000e+00" cType="1" res="-3.6448415368795395e-02" rms="2.3737461864948273e-01" purity="9.0232901275157928e-02" nType="-99"/>
              </Node>
            </Node>
          </Node>
        </Node>
      </Node>
    </BinaryTree>
    <BinaryTree type="DecisionTree" boostWeight="1.0000000000000000e+00" itree="14">
      <Node pos="s" depth="0" NCoef="0" IVar="22" Cut="8.4647405892610550e-03" cType="1" res="-7.6139185694046319e-05" rms="2.9675179719924927e-01" purity="5.0008189678192139e-01" nType="0">
        <Node pos="l" depth="1" NCoef="0" IVar="7" Cut="5.0299401283264160e+00" cType="1" res="1.4978018589317799e-02" rms="3.1300312280654907e-01" purity="6.1094105243682861e-01" nType="0">
          <Node pos="l" depth="2" NCoef="0" IVar="2" Cut="1.7924306392669678e+00" cType="1" res="2.4417178705334663e-02" rms="3.1567317247390747e-01" purity="6.6518437862396240e-01" nType="0">
            <Node pos="l" depth="3" NCoef="0" IVar="15" Cut="1.0778442621231079e+00" cType="1" res="3.5383261740207672e-02" rms="3.1940984725952148e-01" purity="7.7165627479553223e-01" nType="0">
              <Node pos="l" depth="4" NCoef="0" IVar="7" Cut="1.0079840421676636e+00" cType="1" res="8.3828950300812721e-03" rms="3.5565766692161560e-01" purity="6.7328864336013794e-01" nType="0">
                <Node pos="l" depth="5" NCoef="0" IVar="-1" Cut="0.0000000000000000e+00" cType="1" res="2.8009893372654915e-02" rms="3.1758916378021240e-01" purity="8.2816773653030396e-01" nType="-99"/>
                <Node pos="r" depth="5" NCoef="0" IVar="-1" Cut="0.0000000000000000e+00" cType="1" res="-8.4204524755477905e-03" rms="3.8134357333183289e-01" purity="5.5240458250045776e-01" nType="-99"/>
              </Node>
              <Node pos="r" depth="4" NCoef="0" IVar="14" Cut="1.2479487061500549e-01" cType="1" res="5.3553413599729538e-02" rms="2.9109236598014832e-01" purity="8.3785378932952881e-01" nType="0">
                <Node pos="l" depth="5" NCoef="0" IVar="-1" Cut="0.0000000000000000e+00" cType="1" res="5.3783416748046875e-02" rms="2.8195869922637939e-01" purity="8.5025495290756226e-01" nType="-99"/>
                <Node pos="r" depth="5" NCoef="0" IVar="-1" Cut="0.0000000000000000e+00" cType="1" res="-3.5674914252012968e-03" rms="3.3429184556007385e-01" purity="7.6450908184051514e-01" nType="-99"/>
              </Node>
            </Node>
            <Node pos="r" depth="3" NCoef="0" IVar="2" Cut="2.0602357387542725e+00" cType="1" res="-3.3158440142869949e-02" rms="2.8851976990699768e-01" purity="1.0617091506719589e-01" nType="0">
              <Node pos="l" depth="4" NCoef="0" IVar="-1" Cut="0.0000000000000000e+00" cType="1" res="-1.1649131774902344e-02" rms="3.2333439588546753e-01" purity="1.3971355557441711e-01" nType="-99"/>
              <Node pos="r" depth="4" NCoef="0" IVar="-1" Cut="0.0000000000000000e+00" cType="1" res="-4.9639664590358734e-02" rms="2.4780967831611633e-01" purity="7.2890885174274445e-02" nType="-99"/>
            </Node>
          </Node>
          <Node pos="r" depth="2" NCoef="0" IVar="-1" Cut="0.0000000000000000e+00" cType="1" res="-5.6610006839036942e-02" rms="2.7604049444198608e-01" purity="1.4476630091667175e-01" nType="-99"/>
        </Node>
        <Node pos="r" depth="1" NCoef="0" IVar="3" Cut="1.0394521951675415e+00" cType="1" res="-5.2658464759588242e-02" rms="2.2336767613887787e-01" purity="1.1286459863185883e-01" nType="0">
          <Node pos="l" depth="2" NCoef="0" IVar="-1" Cut="0.0000000000000000e+00" cType="1" res="-1.1555443517863750e-02" rms="3.4203419089317322e-01" purity="3.5233634710311890e-01" nType="-99"/>
          <Node pos="r" depth="2" NCoef="0" IVar="2" Cut="1.3787932395935059e+00" cType="1" res="-6.3308931887149811e-02" rms="1.6970378160476685e-01" purity="3.9299968630075455e-02" nType="0">
            <Node pos="l" depth="3" NCoef="0" IVar="-1" Cut="0.0000000000000000e+00" cType="1" res="-7.0753827691078186e-02" rms="2.7155452966690063e-01" purity="1.0768904536962509e-01" nType="-99"/>
            <Node pos="r" depth="3" NCoef="0" IVar="2" Cut="1.9706845283508301e+00" cType="1" res="-4.6784631907939911e-02" rms="7.9109974205493927e-02" purity="6.2752603553235531e-03" nType="0">
              <Node pos="l" depth="4" NCoef="0" IVar="-1" Cut="0.0000000000000000e+00" cType="1" res="-9.0748213231563568e-02" rms="9.5921844244003296e-02" purity="9.3102799728512764e-03" nType="-99"/>
              <Node pos="r" depth="4" NCoef="0" IVar="-1" Cut="0.0000000000000000e+00" cType="1" res="-9.7553528845310211e-02" rms="5.8187097311019897e-02" purity="3.3432601485401392e-03" nType="-99"/>
            </Node>
          </Node>
        </Node>
      </Node>
    </BinaryTree>
    <BinaryTree type="DecisionTree" boostWeight="1.0000000000000000e+00" itree="15">
      <Node pos="s" depth="0" NCoef="0" IVar="2" Cut="-4.4121405482292175e-01" cType="1" res="-2.3448446881957352e-04" rms="2.9516556859016418e-01" purity="4.9998310208320618e-01" nType="0">
        <Node pos="l" depth="1" NCoef="0" IVar="14" Cut="9.9084757268428802e-02" cType="1" res="3.5882525146007538e-02" rms="2.5133565068244934e-01" purity="8.9714258909225464e-01" nType="0">
          <Node pos="l" depth="2" NCoef="0" IVar="17" Cut="6.2502838671207428e-02" cType="1" res="4.2022738605737686e-02" rms="2.4944226443767548e-01" purity="9.0542393922805786e-01" nType="0">
            <Node pos="l" depth="3" NCoef="0" IVar="15" Cut="7.2283571958541870e-01" cType="1" res="2.5678236037492752e-02" rms="2.9657191038131714e-01" purity="8.6086487770080566e-01" nType="0">
              <Node pos="l" depth="4" NCoef="0" IVar="-1" Cut="0.0000000000000000e+00" cType="1" res="1.2238238006830215e-02" rms="3.1919357180595398e-01" purity="8.3512210845947266e-01" nType="-99"/>
              <Node pos="r" depth="4" NCoef="0" IVar="-1" Cut="0.0000000000000000e+00" cType="1" res="3.4323759377002716e-02" rms="2.7159100770950317e-01" purity="8.8666558265686035e-01" nType="-99"/>
            </Node>
            <Node pos="r" depth="3" NCoef="0" IVar="9" Cut="2.9940119013190269e-02" cType="1" res="5.3662899881601334e-02" rms="2.0873177051544189e-01" purity="9.3715786933898926e-01" nType="0">
              <Node pos="l" depth="4" NCoef="0" IVar="-1" Cut="0.0000000000000000e+00" cType="1" res="6.9053731858730316e-02" rms="1.7115971446037292e-01" purity="9.6363735198974609e-01" nType="-99"/>
              <Node pos="r" depth="4" NCoef="0" IVar="-1" Cut="0.0000000000000000e+00" cType="1" res="5.4078288376331329e-02" rms="2.6546630263328552e-01" purity="8.8688337802886963e-01" nType="-99"/>
            </Node>
          </Node>
          <Node pos="r" depth="2" NCoef="0" IVar="-1" Cut="0.0000000000000000e+00" cType="1" res="6.5090171992778778e-03" rms="2.5824415683746338e-01" purity="8.5710608959197998e-01" nType="-99"/>
        </Node>
        <Node pos="r" depth="1" NCoef="0" IVar="7" Cut="5.9880238026380539e-02" cType="1" res="-1.5690682455897331e-02" rms="3.1076720356941223e-01" purity="3.3001956343650818e-01" nType="0">
          <Node pos="l" depth="2" NCoef="0" IVar="-1" Cut="0.0000000000000000e+00" cType="1" res="3.4839291125535965e-02" rms="3.3728891611099243e-01" purity="6.6322356462478638e-01" nType="-99"/>
          <Node pos="r" depth="2" NCoef="0" IVar="1" Cut="1.6514770984649658e+00" cType="1" res="-2.3818066343665123e-02" rms="3.0637684464454651e-01" purity="2.8923478722572327e-01" nType="0">
            <Node pos="l" depth="3" NCoef="0" IVar="7" Cut="3.0259480476379395e+00" cType="1" res="-1.2136223725974560e-02" rms="3.0398169159889221e-01" purity="2.9796153306961060e-01" nType="0">
              <Node pos="l" depth="4" NCoef="0" IVar="22" Cut="8.4235779941082001e-03" cType="1" res="1.0853373445570469e-02" rms="3.4203010797500610e-01" purity="4.5870682597160339e-01" nType="0">
                <Node pos="l" depth="5" NCoef="0" IVar="-1" Cut="0.0000000000000000e+00" cType="1" res="1.9687330350279808e-02" rms="3.6918967962265015e-01" purity="5.8311462402343750e-01" nType="-99"/>
                <Node pos="r" depth="5" NCoef="0" IVar="-1" Cut="0.0000000000000000e+00" cType="1" res="-5.0948627293109894e-02" rms="2.3267228901386261e-01" purity="8.1812188029289246e-02" nType="-99"/>
              </Node>
              <Node pos="r" depth="4" NCoef="0" IVar="11" Cut="3.2634729146957397e-01" cType="1" res="-3.7432815879583359e-02" rms="2.5325304269790649e-01" purity="1.2108556926250458e-01" nType="0">
                <Node pos="l" depth="5" NCoef="0" IVar="-1" Cut="0.0000000000000000e+00" cType="1" res="-5.4276373237371445e-02" rms="2.2892844676971436e-01" purity="9.5599226653575897e-02" nType="-99"/>
                <Node pos="r" depth="5" NCoef="0" IVar="-1" Cut="0.0000000000000000e+00" cType="1" res="-1.0029350407421589e-02" rms="2.9677867889404297e-01" purity="1.7536553740501404e-01" nType="-99"/>
              </Node>
            </Node>
            <Node pos="r" depth="3" NCoef="0" IVar="1" Cut="2.1066036224365234e+00" cType="1" res="-6.6534705460071564e-02" rms="3.1126949191093445e-01" purity="2.5732386112213135e-01" nType="0">
              <Node pos="l" depth="4" NCoef="0" IVar="-1" Cut="0.0000000000000000e+00" cType="1" res="-3.9685484021902084e-02" rms="3.0749168992042542e-01" purity="2.6575389504432678e-01" nType="-99"/>
              <Node pos="r" depth="4" NCoef="0" IVar="-1" Cut="0.0000000000000000e+00" cType="1" res="-6.7026615142822266e-02" rms="3.1541761755943298e-01" purity="2.4454662203788757e-01" nType="-99"/>
            </Node>
          </Node>
        </Node>
      </Node>
    </BinaryTree>
    <BinaryTree type="DecisionTree" boostWeight="1.0000000000000000e+00" itree="16">
      <Node pos="s" depth="0" NCoef="0" IVar="7" Cut="1.0179641246795654e+00" cType="1" res="-2.9631497454829514e-04" rms="2.9397878050804138e-01" purity="4.9969294667243958e-01" nType="0">
        <Node pos="l" depth="1" NCoef="0" IVar="22" Cut="8.4509234875440598e-03" cType="1" res="2.7826383709907532e-02" rms="2.8754222393035889e-01" purity="7.5001996755599976e-01" nType="0">
          <Node pos="l" depth="2" NCoef="0" IVar="17" Cut="5.0509903579950333e-02" cType="1" res="3.7325292825698853e-02" rms="2.7781349420547485e-01" purity="8.3606141805648804e-01" nType="0">
            <Node pos="l" depth="3" NCoef="0" IVar="-1" Cut="0.0000000000000000e+00" cType="1" res="3.9439885877072811e-03" rms="3.3884587883949280e-01" purity="6.9508594274520874e-01" nType="-99"/>
            <Node pos="r" depth="3" NCoef="0" IVar="1" Cut="1.9261883497238159e+00" cType="1" res="4.6987246721982956e-02" rms="2.5569424033164978e-01" purity="8.7875998020172119e-01" nType="0">
              <Node pos="l" depth="4" NCoef="0" IVar="2" Cut="5.7905870676040649e-01" cType="1" res="5.4646026343107224e-02" rms="2.4462559819221497e-01" purity="8.9736485481262207e-01" nType="0">
                <Node pos="l" depth="5" NCoef="0" IVar="-1" Cut="0.0000000000000000e+00" cType="1" res="6.7078441381454468e-02" rms="1.5646807849407196e-01" purity="9.7432583570480347e-01" nType="-99"/>
                <Node pos="r" depth="5" NCoef="0" IVar="-1" Cut="0.0000000000000000e+00" cType="1" res="5.1024701446294785e-02" rms="3.8750252127647400e-01" purity="6.9669246673583984e-01" nType="-99"/>
              </Node>
              <Node pos="r" depth="4" NCoef="0" IVar="-1" Cut="0.0000000000000000e+00" cType="1" res="1.7923954874277115e-02" rms="2.9037079215049744e-01" purity="8.1188988685607910e-01" nType="-99"/>
            </Node>
          </Node>
          <Node pos="r" depth="2" NCoef="0" IVar="-1" Cut="0.0000000000000000e+00" cType="1" res="-1.3979297131299973e-02" rms="3.2825702428817749e-01" purity="3.1449952721595764e-01" nType="-99"/>
        </Node>
